gene_name,Z_0,Z_1,Z_2,Z_3,Z_4,Z_5,Z_6,Z_7,Z_8,Z_9,Z_10,Z_11,Z_12,Z_13,Z_14,Z_15,Z_16,Z_17,Z_18,Z_19
Sox17,0.2575289,-0.19658445,0.4058103,-0.12741932,-0.36756596,0.29101253,0.08653094,-0.116973184,0.35221854,0.26236874,-0.14156929,0.03914821,-0.3590572,0.50479937,0.20513421,-0.32593024,-0.8891854,0.15174748,-0.17482989,-0.40929863
Sgk3,-0.3351042,-0.51371324,-0.053637724,-0.017054027,-0.1003796,0.22350183,-0.13912795,-0.005233166,-0.29937845,0.113866255,0.13864654,0.1601255,-0.13579579,0.071430884,0.16940632,0.036693133,-0.2174707,0.3726698,0.023720924,-0.21138163
Rdh10,0.046573196,0.2943995,0.069526345,0.08471176,0.2644705,0.2224544,-0.13998525,-0.29660907,-0.119811654,0.0034409598,0.17608568,0.19662045,-0.35298884,0.16080742,0.20081799,0.030675802,-0.10450447,-0.17284566,-0.16363849,0.20115352
Ptpn18,0.3503032,-0.60660654,0.004830054,-0.17732419,0.35480386,0.22994353,0.107648,-0.13629086,-0.095860176,-0.097879685,0.07675839,-0.1766959,0.2551589,0.1189176,0.34126413,-0.014521697,-0.17005463,0.19111241,0.00059549656,-0.31286487
Cfc1,0.064607605,0.0024970497,-0.09117837,0.038659446,-0.06556185,0.29591367,0.24990585,-0.33101428,-0.4367468,0.08173472,0.37141272,-0.3416029,-0.29340145,-0.5499075,-0.17829336,0.14729916,-0.917388,0.41494188,0.05625392,0.1117297
Fhl2,0.48007748,-0.038681466,0.10086862,-0.109254204,-0.037002396,0.21562226,-0.0072150053,-0.14186917,-0.061993983,-0.1728998,0.14284822,0.24327667,0.15054907,0.22941174,-0.12894265,0.27773622,-0.08654495,0.14640573,-0.05065458,0.01014689
Slc40a1,-0.12661938,-0.26062632,-0.036853828,-0.21216129,-0.22681198,0.2733892,-0.14717497,0.057781465,-0.28790796,-0.37427944,0.12953916,0.6892225,0.051750932,0.4341636,-0.2700141,0.06125506,0.19842221,0.25280178,0.09065393,-0.026311675
Inpp1,0.36702546,-0.6216756,0.054168977,-0.02544609,0.3449008,0.26398036,-0.058083963,0.097595416,-0.14168766,-0.06346508,0.015069683,0.034935277,0.12773809,0.27242535,-0.054820158,0.24751253,0.45439056,0.09852241,0.04264482,0.11884281
1700019D03Rik,-0.24965672,-0.5586993,-0.06267521,0.26291022,0.29657972,0.1661055,-0.070468396,-0.17186736,-0.28271797,-0.22685847,0.34791198,0.15967771,-0.18114665,0.8463093,-0.5625085,0.12671065,-0.20739034,-0.107185915,0.07038572,-0.23524226
Spats2l,0.42371115,0.07997686,-0.038404476,-0.12531841,0.33874482,0.16406797,-0.022877226,0.061889414,-0.20890406,-0.14647405,0.045179285,-0.2948847,0.11932179,0.17462677,0.1470985,0.22612661,-0.5256249,0.11705674,-0.065038696,-0.020437643
Nrp2,0.4333064,0.24368696,0.11257713,0.058372475,0.5453609,0.09347745,-0.07391186,0.08958052,0.11837707,-0.07252618,0.037039615,0.23888317,0.019846158,-0.16063228,-0.17739324,-0.040302973,0.027804699,-0.10010435,-0.053867135,-0.10106623
Fn1,-0.062157,0.19305605,0.03364997,-0.16827843,0.38674074,0.0628681,0.028362228,-0.057856776,-0.09055477,-0.16010366,-0.025311861,-0.37971994,-0.29273576,-0.3538328,0.04213965,-0.10642443,-0.42454377,-0.14829771,-0.02811829,-0.1219993
Rpl37a,-0.050000027,-0.03755465,-0.071909525,0.04728712,0.24004816,0.22502978,0.003856236,-0.10573011,-0.2390064,-0.07797707,-0.020005707,-0.24942786,-0.12461506,0.2884073,0.07447,0.09785192,0.110427365,0.038126003,-0.021519482,-0.10659103
Igfbp2,0.20297925,-0.20576851,-0.15894915,-0.096249744,0.17185266,0.25022936,-0.035439413,-0.05598876,-0.1987264,-0.18314993,-0.10392972,-0.71560365,-0.17151056,0.40586495,-0.5088471,0.25450468,-0.21895443,0.13527533,-0.061828814,-0.026953148
Igfbp5,0.17649002,0.9641218,0.3301132,-0.13593997,0.31779644,-0.0015770328,0.095024966,-0.09855295,-0.20353751,0.18769537,0.11108794,0.17107104,-0.37168482,0.7681286,-0.5024575,0.013077919,-0.5515115,-0.16818953,0.018468697,-0.10580523
Wnt6,0.31690684,-0.118844345,-0.22251894,0.1365864,-0.20028248,-0.060431734,-0.0886002,-0.034314673,-0.17642732,-0.009183077,-0.015321406,0.3237615,0.7313495,-0.12469694,-0.8651845,0.19148262,0.51339793,0.04889173,-0.07204341,-0.3202346
Tuba4a,-0.68424666,-0.47879472,-0.05483487,-0.031063627,0.15293469,0.1758916,-0.104442894,-0.115484685,-0.32278398,-0.014054151,0.0044467975,0.05236053,-0.10519417,0.47869235,0.068847366,0.1558589,0.0599763,0.06841061,0.09158119,-0.07300746
Epha4,0.10850139,0.07700814,-0.14486873,0.0729957,0.4195294,0.08076732,-0.06437134,-0.067180805,0.12114065,-0.30954793,0.013279936,-0.48600847,-0.413575,-0.12740473,-0.8201929,-0.053195257,-0.2896484,-0.23129663,0.047209267,0.15601647
Ap1s3,-0.09529296,-0.39040858,-0.15470843,-0.17193031,-0.007644193,0.24712232,-0.07903847,-0.15121624,-0.048737925,-0.08640126,0.16834328,-0.2825077,-0.30917293,0.50571096,-0.10583948,-0.044894833,0.15574779,0.37332517,-0.08078168,-0.055926636
Pid1,0.06108138,-0.5878194,-0.106144905,0.11064908,0.088452965,0.113048725,-0.10280126,-0.22084378,-0.1707876,-0.12037843,0.015104941,-0.101707935,-0.34250325,-0.1603014,-0.46425006,0.21080503,-0.21076691,0.25129455,-0.14085817,-0.1378596
Ptma,-0.046242118,-0.07509343,-0.06566075,0.0511124,0.2401588,0.2269881,-0.03513209,-0.109384,-0.22475591,-0.06846904,0.0132317655,-0.30582,-0.12665148,0.27533478,0.054771475,0.09876118,0.09069565,0.04143384,-0.02753984,-0.09077405
Arl4c,0.39368418,-0.2820813,-0.1733133,0.01561586,0.2612103,0.3218416,-0.08619997,-0.17266963,-0.3789762,-0.12693769,0.07975203,-0.3161463,0.17205542,0.34669995,-0.45947355,0.29139084,-0.079105616,0.108413056,-0.1523167,-0.2696284
Gbx2,0.14549826,-0.3982198,-0.12546326,0.3626755,0.19538014,0.09513873,-0.10567793,-0.27202004,-0.036559965,0.15330492,-0.007791393,-0.57016695,-0.016176004,-0.04209264,-0.5453692,-0.07727531,0.503273,-0.9000727,-0.20416746,0.04220333
Lrrfip1,0.092399634,0.03942817,-0.12912373,-0.05433745,0.26846877,0.32596362,-0.10804875,-0.09447963,-0.19750138,-0.11156181,0.11537342,-0.09396913,0.11076601,0.2364872,0.055285316,0.25922325,0.03591136,-0.0014431917,-0.016204016,-0.0862533
Scly,-0.24976355,-0.1996153,0.028753348,0.120252825,0.065590985,0.19638899,-0.07007114,-0.0514884,-0.14991176,-0.046130203,0.08965901,0.019135233,-0.26392293,0.40322632,-0.033540737,0.22817148,-0.037934765,0.021245632,0.1104584,-0.095021844
Bok,0.41089618,-0.31132796,0.18611975,0.053712938,0.26252052,0.20994233,0.036998697,-0.08330783,-0.17650388,-0.20356484,0.13617153,-0.45819452,0.31778523,0.47232214,-0.358871,0.27395168,0.45333543,0.12770404,-0.04508246,-0.042772874
Ralb,0.24474795,-0.26152056,-0.04701681,-0.17562966,0.27339086,0.18494548,-0.11699754,-0.041975554,-0.17439489,-0.042702243,-0.08503165,-0.064475335,-0.048319995,0.22201781,0.29167023,0.17424704,-0.08031972,-0.01032022,-0.023075532,-0.09656117
Tmem37,-0.07891575,-0.22981802,-0.10597145,-0.031415205,0.28799072,0.20440578,-0.1274806,-0.059374847,-0.18143027,-0.1880893,-0.088756405,0.65588504,0.11759531,0.48674408,-0.042826507,0.052936174,-0.25430077,-0.17346348,-0.005658553,0.078483865
Dbi,0.028442131,-0.06621036,-0.049553826,0.0865368,0.20856448,0.21422227,0.007942903,-0.11405268,-0.254573,-0.0866238,-0.030424181,-0.103119425,-0.15929097,0.35375455,0.074205786,0.12755163,0.055641487,-0.049584668,-0.016898407,-0.07392427
Btg2,-0.34497374,0.006624516,0.21994694,-0.19449754,0.2748632,0.26099905,0.028245693,-0.1011606,-0.14867538,-0.05494542,-0.1636313,-0.5545708,0.015708147,0.13401458,0.09648961,-0.006326748,0.30217075,0.17937742,0.29391336,0.0101724705
Elf3,-0.040627375,-0.37233037,0.0019703486,0.15612909,-0.16973369,0.22595392,-0.08580573,-0.22851688,-0.21137387,0.18148442,-0.082888894,0.30588034,0.1444897,0.42932454,-0.23550823,-0.094464175,-0.19505055,0.38422084,0.06547366,-0.2015926
Csrp1,0.25477496,-0.0036147288,-0.00588183,-0.14233929,0.16454764,0.28114417,0.0018117046,-0.19897476,-0.23524493,-0.1345774,0.0159129,-0.030823423,0.092902794,0.09421262,0.09695987,0.2364047,-0.07057018,-0.09287019,0.021641742,-0.11137745
Phlda3,0.2256094,-0.49067178,-0.11977067,-0.05253708,0.2080976,0.005919191,-0.11384316,-0.27323464,-0.2630592,-0.18164214,0.058380038,-0.33260912,0.21612515,0.06677236,-0.2666214,0.24223761,0.32749876,-0.15667331,-0.059969887,-0.185858
Tnni1,-0.16698685,0.5296651,-0.024100205,-0.26357937,0.182651,-0.010962439,0.0451717,-0.35622215,-0.31737816,-0.29455504,0.18627523,-0.50952446,0.1457734,-0.34315276,0.29749483,0.29715306,-0.3112626,-0.57635397,0.16601144,0.20437263
Lad1,0.022680365,-0.6347836,-0.18469967,-0.032422367,-0.06911025,0.06719302,-0.18044585,-0.16437018,-0.40653655,-0.36581942,0.13929279,0.40746292,0.0018637328,0.16008392,-0.36542448,0.15838799,0.14660074,-0.055684637,-0.027655588,-0.21133593
Lamc1,-0.12524751,0.19755708,0.08629885,-0.22013712,0.40730286,0.3274316,0.08314345,-0.12633315,-0.04506724,-0.116439156,-0.17255563,0.05678556,0.03156474,0.061521146,-0.39529943,0.104049176,-0.098376386,0.08043136,-0.10120025,-0.14827912
Npl,-0.33616224,-0.20291756,-0.034331482,-0.09318756,0.15324044,0.22870032,-0.07721219,-0.14380796,0.12978302,-0.16054006,0.007405528,0.11621369,-0.14230473,0.38708797,0.35418266,-0.0036333094,-0.45297322,-0.60804886,0.057873562,0.10018575
Glul,-0.076199345,-0.17913432,-0.040468924,0.12734695,0.1580822,0.19967587,-0.108033635,-0.093689255,-0.1598259,-0.07847884,0.019533526,-0.14906125,-0.24811642,0.29161802,0.061557412,0.13560778,-0.058182396,0.0292304,-0.025961578,-0.053063218
Atp1b1,-0.1313543,-0.18650208,0.102453515,0.08636725,0.23101977,0.27642843,-0.05051011,-0.118024506,-0.2268858,-0.110623494,-0.05248039,0.34622315,-0.08844407,0.48070374,-0.11466417,0.21948609,-0.40537477,-0.07984812,0.14384516,-0.05797252
Sft2d2,0.116538115,-0.10553499,-0.034696013,-0.088432595,0.15051398,0.21154514,-0.0011879251,-0.008224464,-0.1836605,-0.0999584,0.097140536,0.18337956,-0.1453127,0.35856217,-0.08193737,0.104341805,-0.25102982,-0.016127996,-0.07387666,-0.14455941
Mpc2,-0.104820594,0.083609976,-0.050882533,0.03508756,0.19894478,0.08486602,0.077664204,0.00068917766,-0.120335266,-0.11731121,0.04969407,0.08692005,-0.060424015,0.1806106,0.24379213,0.15848479,-0.052231345,0.0105312485,0.016869644,-0.012603834
Creg1,-0.26598713,0.17460662,0.053974565,-0.23383854,0.31811416,0.09397723,-0.08627906,-0.061604,-0.12260229,-0.0854887,0.045657814,-0.025067698,-0.0586734,0.25707075,0.25771284,-0.0019445709,0.18925321,-0.17318659,-0.019440059,-0.09129816
Mgst3,-0.5930811,0.15088971,-0.0031550662,-0.12292812,0.037314862,0.12336497,-0.01727545,-0.05233895,-0.4146028,-0.020511407,-0.07037614,0.06669489,-0.32779813,0.34276706,0.013529479,0.22632873,0.00034369467,0.030043356,-0.020988906,0.032747407
Rgs5,0.6514212,0.5067225,0.08764409,-0.059054445,0.1321197,0.2434237,-0.12201521,-0.07068928,-0.46584082,-0.013729132,0.1180072,-0.74764013,0.55686724,-0.3481135,0.09149058,-0.075127,-0.6892383,0.17548332,0.059469063,0.06397772
Apoa2,-0.2762601,-0.16504368,0.0073927953,0.01542757,0.19111456,0.044259813,0.059606973,0.04545863,-0.4063437,-0.05540412,-0.081988566,0.17642124,-0.35497102,0.5005637,0.007524569,0.16537839,-0.35262823,-0.6031421,-0.06793521,0.027254507
Ppox,-0.45729062,0.1448722,-0.03281588,-0.10693628,0.1181011,0.17831112,-0.031033972,-0.09820936,-0.24719112,0.0053412234,0.033135552,-0.34072414,-0.12988582,0.2514158,0.050179884,0.18949062,0.16280083,-0.0107036615,0.0011242705,-0.062042832
F11r,0.20658931,-0.5002887,-0.006363464,-0.14666863,0.16530803,0.17456205,-0.11951258,-0.016072316,-0.18209982,-0.16730122,0.011495058,0.09060384,-0.25337434,0.31523943,-0.18775572,0.008186806,0.14697765,0.080250874,0.08856883,-0.22295678
B930036N10Rik,-0.39006647,0.30279312,0.039140865,-0.24177703,0.6986231,0.25366622,-0.016336286,-0.16434489,-0.26083514,-0.06737053,0.03482114,-0.37575114,-0.111790426,0.029970543,-0.4109615,-0.058680408,0.3212628,0.13068789,0.09440864,-0.27402112
Tagln2,0.028307268,-0.19992316,-0.03210472,-0.12885347,0.09828688,0.22589849,-0.017637767,-0.14938477,-0.13313115,-0.019766077,-0.00046322125,-0.0007265625,-0.040080313,0.33910125,0.09132028,0.078913204,0.103353664,0.04046098,-0.022045605,-0.11048708
Sccpdh,0.15541686,-0.091260605,-0.029433306,0.019406075,0.083975926,0.24663338,-0.086204804,-0.06612435,-0.104924336,-0.054093163,0.049445737,0.11436326,-0.186718,0.2368638,0.012640448,0.13137099,-0.10961199,-0.0130913,-0.03526565,-0.011752361
Mixl1,-0.28213716,-1.1972951,0.34062764,0.07779987,-0.18175119,0.4131185,0.073343605,0.13978922,0.0055110296,-0.07841059,-0.17523886,-0.7956836,-0.43797463,-0.7289255,-0.029799625,0.12225452,-0.105163716,0.5785498,-0.104839355,-0.12836696
Lefty2,-0.19725186,-0.4459585,0.047006704,0.08483965,0.26842135,-0.356767,-0.29565597,-0.11113482,-0.30397844,-0.45961013,0.0022872104,-1.092491,-0.37740263,-0.42211875,-0.27907115,0.28800547,-0.16661894,0.80067015,-0.10009658,0.33690593
Degs1,-0.015313249,-0.054948214,-0.066420555,-0.11858371,0.28595167,0.28498358,-0.16621304,-0.1035069,-0.18952711,-0.033122435,-0.009406618,0.06664812,-0.07854004,0.19986802,0.13962525,0.12049862,-0.0084931785,0.03885148,-0.019101785,-0.038498864
Capn2,0.27282736,-0.0608105,-0.13709237,-0.08475939,0.22071591,0.033200648,-0.11325986,-0.116903916,-0.035652336,-0.06691582,-0.016599797,0.079287186,-0.014094114,0.1413912,0.24448806,0.18532227,0.049384408,-0.15056555,-0.10217869,0.14804468
Marc2,-0.12298082,-0.00463168,0.0028068833,-0.16537267,0.18847944,0.23470004,0.014333544,-0.10426709,-0.1239605,-0.06534736,-0.07148448,0.19039008,-0.0708862,0.4281422,0.039910022,0.1920137,0.017712954,-0.12131478,-0.012127783,-0.041087873
Tgfb2,0.76729125,0.42315754,0.28535917,-0.22251645,0.25240427,0.2318537,-0.08460511,-0.15844442,-0.52231234,0.13407767,0.32933035,-0.55968684,-0.070509054,0.18268418,-0.11696508,-0.02238145,-0.32020304,-0.035829004,-0.034507982,-0.017090525
Batf3,0.3152383,-0.2933305,0.027409118,0.17072041,0.29628876,-0.11363546,-0.13290301,-0.18851528,-0.38890204,-0.09734952,-0.053610336,0.19356085,0.3648958,0.60085046,-0.21015623,0.027596403,0.21974543,-0.2370647,-0.123388246,-0.45233276
Fam107b,0.45105806,-0.080163114,-0.025987428,-0.24494632,0.052480336,0.15165786,-0.0777067,0.004292026,-0.06344698,-0.102267444,0.048231736,-0.0048843427,-0.21731703,0.43653077,0.21352436,0.064463854,-0.14765856,0.014740462,-0.1041315,-0.015217335
Phyh,0.020099431,-0.20612396,0.009718253,0.042930584,0.050303064,0.26999536,-0.005667176,-0.05729862,-0.2513585,-0.009058796,0.0054732426,0.043461964,-0.28249758,0.427848,-0.0594082,0.24180092,-0.35846314,0.055283397,0.026241716,0.07338207
Sfmbt2,-0.36720097,-0.32139006,0.101950906,0.030138355,0.3544607,0.16969945,-0.16124915,-0.06571933,-0.20960948,-0.14164641,-0.04144155,0.85269904,0.33107385,0.1726623,-0.093063764,-0.13834438,0.036681984,0.2937212,-0.026222672,-0.0017499715
Cubn,-0.52703154,-0.19991048,-0.019214703,-0.09616258,0.35668358,0.3460515,0.05032848,-0.13103302,-0.2583659,-0.14709713,-0.015871802,0.49360475,-0.20601776,0.20062394,-0.15971284,-0.09191413,-0.6769411,-0.44681516,-0.0350656,0.26167515
Vim,0.45057368,-0.04565702,-0.1248638,-0.18068501,0.26538306,0.1850145,0.0036657217,-0.17598495,-0.14561847,-0.013423304,-0.013808356,-0.73936516,0.07338899,-0.092978776,0.10050177,0.10333172,-0.36060265,-0.37550303,0.059822116,-0.15397929
Nrarp,0.3074373,-0.40116268,0.25305077,-0.04663561,0.056265492,0.22759166,0.011513141,-0.008233322,0.004843464,-0.1361803,-0.14201064,-0.19967903,-0.1616233,0.10629024,0.06570344,-0.096941814,0.5684718,-0.06166752,0.038995598,-0.011050676
Uap1l1,-0.081740454,-0.48075807,0.3522956,0.08780999,-0.0566997,0.25459054,-0.080056824,0.060885202,-0.5427437,-0.13543043,-0.14213997,0.56488156,-0.21236235,0.058956366,0.15224439,0.04783934,-0.017475162,-0.25139236,0.13482893,-0.09543604
Notch1,0.369931,-0.3221818,0.07254599,-0.30045018,0.7214919,-0.0657391,0.058560673,0.091046914,0.015528431,-0.14236158,-0.05650535,-0.4509674,-0.15672196,-0.19331242,-0.37298578,-0.25138637,0.25573972,-0.19074103,0.09096966,0.08218407
Egfl7,-0.04842618,-0.15081011,-0.014538611,-0.15936613,0.35137016,0.1888387,-0.010226561,-0.047927924,-0.15500908,-0.0710809,0.035586398,-0.2731,0.047666524,0.32150766,0.19022839,0.03416528,0.007358018,0.033001564,-0.055833843,-0.19369765
Set,-0.042012386,-0.11985167,-0.07770216,0.06574503,0.25711843,0.23941542,-0.04787212,-0.103059016,-0.21388699,-0.059132293,0.019639457,-0.29978138,-0.10344138,0.2694868,0.030598879,0.092795566,0.10458865,0.048643477,-0.024502974,-0.091883324
Prrx2,0.61546916,0.58092636,0.2563302,0.3517425,0.35646603,-0.06725899,-0.0067196065,-0.15155512,-0.3312556,0.12452799,0.048059445,-0.6401626,0.290539,-0.09535248,-0.032244455,-0.123682246,-0.35352063,-0.36544874,-0.059426893,0.10460737
Ass1,-0.3491241,-0.6586471,-0.041238423,-0.02838954,0.13825917,0.13774501,-0.12389358,-0.082158566,-0.22877812,-0.018805355,0.025195682,0.40107515,0.080617934,0.41874614,0.07475585,0.09383906,-0.06888151,0.15795638,0.0054984065,0.009594841
Ak1,0.3937549,-0.23639163,0.25464332,0.018795175,0.15860061,0.2836702,-0.014220209,-0.18506058,-0.3415597,-0.013666152,0.15354383,0.0156838,0.26891208,0.21142745,-0.021660306,0.20432433,0.26792988,0.25282508,0.0570463,0.027301941
Mvb12b,-0.26735324,0.042460095,-0.029505357,-0.2003972,0.21821745,0.27474537,0.24067423,-0.16859479,-0.22871399,0.08513182,-0.010044425,-0.15945153,-0.2641014,0.23014401,0.15857933,0.051985368,-0.13619676,0.031335026,-0.016474277,-0.054448668
Hspa5,0.04141981,-0.033358265,-0.06680001,-0.016318977,0.27278203,0.2678719,-0.12692156,-0.08907485,-0.20164199,-0.01695705,-0.021833586,-0.22445816,-0.16500825,0.23588361,-0.02993796,0.119640395,0.028798154,0.014936577,0.024246173,-0.07106992
Gsn,0.0942759,-0.23910517,0.044707112,-0.28625908,-0.0940563,0.04298631,-0.125241,-0.25617602,-0.18723083,0.035887603,-0.08141571,0.6615885,0.057654582,0.50121826,-0.1307119,0.043641035,0.0014599895,-0.0321572,0.021280745,0.39050245
Zeb2,-0.090156905,0.20427309,-0.11986602,-0.07664997,0.64615875,0.2612664,0.013532925,0.023999142,0.097377986,0.06420222,0.049000572,-0.9270396,-0.065931246,-0.064049155,-0.123219706,0.058188926,-0.0011824768,-0.3708397,0.08613602,0.04005925
Rnd3,0.20628944,0.20076396,-0.25069603,0.039225776,0.09120922,0.31683367,-0.16221319,0.010942065,-0.21329893,-0.031499773,0.054831646,-0.33872756,-0.19278517,0.12385176,-0.21205749,0.14757365,-0.34882134,0.11041609,-0.052652527,0.017852774
Rbms1,0.30782235,0.09587012,-0.08290266,0.02243765,0.20199707,0.08890191,-0.027921,-0.017951407,-0.046613187,0.0054701557,0.047791477,-0.26393926,0.12102286,-0.044380177,-0.067614675,-0.03922475,0.17963198,0.14808404,-0.06683174,-0.059384335
Dpp4,-0.06361996,-0.19031999,-0.019765407,-0.29204878,-0.0051166834,0.3215948,-0.12161199,-0.2769087,-0.037113212,-0.16042842,-0.03245541,0.43695885,-0.33400658,0.6399546,-0.16507357,-0.19625561,-0.7959258,-0.5480605,-0.034876842,0.09469736
Lrp2,-0.30374327,0.25951955,-0.347522,0.104260005,0.58186865,0.27451128,-0.1292519,0.0025995565,-0.2029564,-0.22988893,-0.07917308,0.2288688,0.0075623714,0.5408015,-0.7810076,0.18293364,-0.8743787,-0.15921515,-0.054899372,-0.19469388
Sp5,0.05711476,-0.2103953,0.017383471,0.16944063,-0.29341525,0.2117814,0.0436806,-0.09828194,0.14619143,0.013941252,-0.16357471,-0.8946596,-0.5193882,-0.24830095,-0.6444355,0.1487915,-0.027297886,-0.052013054,-0.18961075,0.12793411
Hoxd1,0.43929303,0.05542777,-0.15397193,0.038709067,0.0009896591,0.483073,-0.2428457,-0.08360228,-0.42732346,-0.28029463,0.24504086,-0.78651935,0.03940402,-0.6273131,0.047326926,0.0052138674,0.03173521,-0.5656483,-0.082974255,-0.3030236
Frzb,0.16235928,-0.081025735,-0.020205965,0.26319844,-0.030716112,0.28687215,-0.057783667,-0.04193945,-0.014082353,0.05429789,-0.20091298,-1.0262886,-0.43678844,-0.24577741,-0.48022383,0.026712034,-0.21879147,0.046204593,-0.17416899,0.18428591
Tfpi,0.0684437,0.13741516,0.02605346,-0.35320288,0.21891311,0.028581575,-0.1659404,-0.18153653,-0.09311884,-0.1727461,-0.11273995,0.06805814,-0.36535943,0.101064146,0.44569933,0.030834999,-0.36540344,-0.03672951,-0.054088607,0.22071278
Ube2l6,-0.73894334,0.189389,0.064669706,-0.103335895,0.13464627,0.19937512,-0.13146952,-0.119841665,-0.043201324,-0.123363085,0.12907876,0.21784925,0.20985761,0.31909445,0.29183522,0.09743399,0.3425703,-0.28402734,-0.02050423,0.051153604
Slc43a3,-0.3857983,0.30581662,0.068457924,-0.45081133,0.19724528,0.17010666,-0.019140761,0.03726548,-0.16649161,-0.0007152211,-0.1412038,-0.6724825,-0.05849936,0.18532181,0.29556432,0.09715361,0.055904146,-0.095460474,-0.023380442,-0.14721248
Aplnr,0.5304105,-0.11568058,-0.022999978,-0.5985052,0.24691035,-0.21697657,-0.016288323,-0.18508625,0.04251882,0.045692194,0.08623842,-1.1855624,-0.14653382,-0.53799933,0.1063409,-0.010277294,-0.20421107,0.015413501,-0.15422507,0.11316545
Mdk,0.030025788,0.023750007,-0.04196369,0.030085191,0.22505715,0.23178403,-0.0021709944,-0.1251924,-0.2607248,-0.08471265,0.004344188,-0.4545101,-0.19953966,0.26407066,-0.009938124,0.091202274,-0.069962025,-0.10634143,-0.021478608,-0.10599834
Trp53i11,0.7586945,-0.26144302,0.060760763,-0.050107334,0.1071624,0.14690886,0.029224727,-0.11426699,-0.06328729,-0.0889357,0.16857882,-0.82175606,0.007240235,0.5110082,-0.43441007,-0.20213461,0.26757595,-0.095240176,-0.06655195,0.2681261
Tspan18,0.0902677,0.18627776,0.13927005,-0.25300357,0.20109218,0.11015104,0.04553003,0.009833634,0.10119548,-0.16820508,0.14260235,0.16431947,0.12761731,0.400781,0.23526084,0.12898202,-0.27321988,-0.139322,-0.035088588,-0.23164888
Elf5,-0.17775267,-0.85602164,0.020826885,0.08735334,0.09666339,0.20545982,-0.09084313,-0.068993144,-0.16701569,-0.06507717,-0.03177425,0.25122607,0.7609203,0.25147855,-0.2859757,-0.03440372,0.56581694,0.35967097,0.012109681,0.21719594
Lmo2,-0.44194221,-0.10744734,0.11617418,-0.3868043,0.015311115,0.16683461,-0.07783619,0.014640846,-0.061479263,-0.07864838,0.0182126,-0.88944846,-0.18341048,-0.20238546,0.5448301,-0.3326656,0.22064306,-0.48406094,-0.024856295,-0.29840285
Cd59a,-0.28250015,0.14766097,0.027417403,-0.61564744,-0.030885153,0.25187427,0.053996764,0.09545298,0.004736673,-0.31356436,0.06500074,0.12860206,-0.25624263,0.28229395,0.48180583,0.046438858,-0.30503127,0.06908781,-0.004285455,-0.0035796387
Depdc7,0.037936874,-0.01762242,0.15922612,0.014751212,0.16276875,0.20911717,-0.2911731,-0.2064311,-0.33478177,-0.039482106,0.018522812,0.22562902,-0.4253383,0.6158552,0.18874872,0.048598006,-0.29584286,-0.36347124,-0.041183468,0.28625354
Mpped2,0.40553796,-0.043605648,0.12828735,0.042123765,0.36949044,0.13004686,-0.042100996,-0.25026157,-0.1870393,-0.21877156,0.2544711,0.10140016,0.2137839,0.27966666,-0.20179838,0.15677361,0.045212604,0.11496414,0.022039955,0.08913912
Meis2,0.4823635,0.18279603,-0.18270294,0.2648529,0.23738822,-0.11058503,-0.029198263,-0.1503465,-0.093646616,0.08282517,0.043905746,-0.68330735,-0.13410442,0.017072247,-0.43556806,0.05353813,-0.16310489,-0.51248425,-0.030779282,-0.045515273
Spint1,0.008576124,-0.4007459,-0.055956576,0.065892525,-0.018889453,0.25906444,-0.14387126,-0.09942169,-0.3624402,-0.104082234,-0.054443084,0.29102486,-0.10483055,0.5153433,-0.689246,0.0772448,0.04366157,-0.07648452,0.039718334,-0.294951
Nusap1,-0.026275657,-0.034534916,-0.05767585,0.037881676,0.1691663,0.18136224,-0.18328354,-0.06651263,-0.23955765,-0.07516257,0.07167303,-0.45725212,-0.067004666,0.33075663,-0.0034879001,0.15851577,0.07765875,0.027298694,-0.025469596,-0.02131279
Sord,-0.3950707,-0.38988647,0.009748089,0.23042883,0.3828621,0.10294144,-0.11268024,-0.095072195,-0.30815306,-0.12103807,0.10405287,0.3088032,-0.0013037227,0.15705076,0.21485549,0.22061262,0.16762395,-0.2027999,0.007115467,0.19418488
Blvra,-0.2777782,-0.21060571,-0.0019982606,-0.026642427,0.21630833,0.11093566,-0.10319483,-0.08448883,-0.22253847,-0.0249725,0.015164067,0.18786512,0.13268925,0.22279018,0.21962957,0.14632487,0.22204444,0.12915295,-0.029365493,-0.030176694
Smox,-0.595547,0.102074504,0.08837382,-0.2364702,0.020940118,0.1767514,-0.06770291,-0.15152965,-0.25858667,-0.015514353,0.058066707,-0.742488,-0.117098585,0.16126344,0.093947165,0.066412404,0.2796936,-0.2427245,-0.0019017387,-0.057308406
Prnp,0.3933968,-0.09272857,0.011702336,-0.40713203,0.31855708,0.21322809,-0.08860867,0.047470763,-0.40296733,-0.110182166,0.07012079,-0.14574769,-0.08708714,0.05335567,-0.2840329,0.44543368,0.15062496,-0.049205754,0.2478057,0.22369461
Bmp2,0.15323588,0.42115787,-0.09006082,-0.58044726,-0.1256409,0.3128245,-0.06328376,0.11234659,0.13693626,-0.039571326,0.31361994,-0.23184094,-0.07391497,-0.037322428,0.29343933,0.07810792,-0.5728275,0.32236424,0.07407688,-0.05236428
Flrt3,0.30465433,0.4785434,-0.16512379,-0.04019042,0.02765573,0.21146375,-0.11992887,-0.022321265,0.09487236,0.20341024,-0.07971352,-0.27900657,-0.38405237,0.27675688,-0.57962596,0.140099,-0.2865493,-0.25772828,-0.005038902,0.068381615
Rrbp1,-0.03586862,0.009000525,-0.05038836,-0.116194464,0.45308807,0.23152705,0.032187533,-0.06645814,-0.13957746,-0.0970088,-0.09083527,0.0065717096,-0.1962231,0.21215662,-0.21340784,0.10318764,-0.17032951,0.0112388255,-0.0234114,-0.20777723
Ovol2,-0.31351563,-0.61442333,-0.05753848,-0.027243579,-0.35935524,0.21848798,-0.049229626,-0.19828717,-0.39417875,-0.2797686,0.1432502,-0.15146258,0.23915008,0.73616177,-0.7649715,-0.13345478,-0.03141431,0.8150924,0.0754952,-0.23708877
Foxa2,0.15633328,-0.1179688,0.27865455,-0.20906448,-0.18359302,0.33345807,0.21371375,-0.002286252,0.03014955,0.3051913,-0.015193176,-0.046029914,-0.7678629,0.6824512,-0.43159872,0.2572811,-0.34811622,0.24104431,-0.31754658,-0.09156109
Cst3,0.07769975,-0.058028795,-0.04929366,-0.027689291,0.23521641,0.19488153,0.023645034,-0.079612456,-0.123846404,-0.07188155,-0.0037979279,-0.04595572,-0.104858235,0.25493553,-0.010111555,0.14236832,-0.036338132,0.11739228,-0.002208555,-0.065380506
Tcf15,0.39021122,-0.33106813,0.35518706,-0.018053003,0.64850825,-0.03299806,-0.07291313,-0.31495747,-0.37353536,-0.018846236,-0.057568837,-0.4251282,-0.2561426,0.287613,0.23751642,-0.022030033,0.43341982,-0.08412436,-0.33725294,0.5726508
Id1,0.22045465,-0.010092523,0.0700792,0.41097444,0.14535153,0.20345408,-0.077686645,-0.13580678,-0.14574099,-0.0015716287,-0.024009962,0.046159744,-0.02116228,0.18748178,-0.14319351,-0.072605915,-0.21941945,0.006944735,0.13462171,-0.20653
Cox4i2,0.5920742,0.17984061,0.14895393,0.1557247,0.031317018,0.28137827,-0.029010948,0.054774474,-0.26101977,-0.12996359,-0.107170485,-0.8446264,0.42656186,-0.06913658,-0.23323902,0.038938522,-0.25600633,-0.16288386,0.05990925,-0.291611
Dnmt3b,-0.064687684,-0.5349903,-0.08968919,0.11730939,0.34294203,0.25709298,-0.042060826,-0.09297661,-0.2181425,-0.08972811,0.043696795,-0.29697207,-0.051540002,0.4683664,-0.23503064,0.07533273,-0.009280465,0.19332977,-0.049705498,-0.07587077
Myl9,0.15994558,0.32424763,0.013958161,-0.19350831,-0.075787075,0.15135483,0.051265597,-0.31196836,-0.04741695,-0.11887186,-0.14086297,-0.8964911,0.31453303,0.20226577,-0.2838923,0.32431474,-0.3713376,-0.16606142,0.072386265,0.03367349
Nnat,0.51364505,0.16861768,-0.029105263,-0.09355257,0.2029271,0.078820325,0.015827414,-0.014823187,-0.25157642,-0.11338296,-0.07844954,-1.1287968,-0.14066723,0.2713752,-0.36026722,0.19857553,-0.0040310062,-0.13909706,-0.05626016,0.18807784
Gtsf1l,-0.45338315,-0.97415113,0.03224652,0.16554998,0.25608543,0.1812909,0.09396702,0.027904185,-0.345222,-0.038217016,0.06615081,0.5583969,0.30033663,0.43867755,-0.21370015,0.04463094,-0.008748921,0.4226902,-0.11574502,-0.1064395
Sdc4,-0.02695027,0.008590227,-0.04452877,0.10208296,0.4010197,0.17721592,-0.0573978,-0.10665552,-0.20599842,-0.05907791,-0.009008438,0.73988795,0.08597897,0.459023,-0.5309081,0.059410885,0.00456675,-0.033879578,-0.048465267,-0.07471008
Wfdc2,0.26358643,-0.22306181,-0.14549138,-0.035605,0.20466837,0.24287882,0.008042275,-0.07248794,-0.34991315,-0.11278384,-0.06012674,-0.67451316,0.16331144,0.49850562,-0.5240119,0.09984206,0.023857554,0.058251996,-0.09285982,-0.24463005
Ube2c,-0.07963952,-0.09765422,-0.05173785,0.052791618,0.21724953,0.20744392,-0.055483878,-0.086510725,-0.20308825,-0.101211324,0.042510554,-0.26677793,-0.06755835,0.28620994,0.06925556,0.118237466,0.066179246,0.029311832,-0.054077774,-0.066990964
Ctsa,-0.02051565,-0.080748886,0.03355648,-0.042703956,0.24881765,0.2291101,-0.10951598,-0.074466445,-0.22049351,-0.040308293,0.012543165,0.016394714,-0.22286141,0.27085516,0.026138883,0.15789609,-0.16119671,-0.03063838,0.050785504,-0.028396353
Snai1,0.38862598,-0.33870995,0.112086505,0.399731,0.39459077,0.2055635,-0.020206574,0.105238855,-0.16177133,0.13069779,-0.34378704,-0.49620667,0.08780358,-0.32193366,-0.02647928,0.065709464,-0.053249735,0.260293,-0.07912028,0.020692313
Cebpb,-0.16102454,-0.5355617,-0.009699302,-0.07491769,0.31581992,0.108574815,-0.140295,-0.19125308,-0.34551966,0.17314252,0.03236925,0.047325805,0.03948684,0.2858057,0.07471688,0.013943269,0.13427013,0.19846703,-0.07513602,-0.14742164
Fam210b,-0.50151503,0.025471339,0.034039646,-0.24703339,0.10670208,0.28959334,0.069173306,-0.056416605,-0.19758016,0.020011129,0.07842318,-0.16356239,-0.012743428,0.19960037,0.25361404,0.13568816,0.1217438,0.10672189,0.029842697,-0.05134143
Tfap2c,-0.0597374,-0.48146152,-0.028986065,0.47791514,-0.046195306,-0.022331178,-0.17395252,0.10461072,-0.09485212,0.08126005,-0.074379034,0.052941356,0.6721448,0.2844295,-0.51608753,-0.02188594,0.50165707,0.17487904,0.013340235,-0.3003912
Bmp7,0.32171938,0.1602323,0.13146417,0.15774894,-0.0700542,0.0063376743,0.034954168,0.005418671,-0.07055396,0.19156712,0.2842239,-0.090307906,-0.013341948,0.029866267,-0.1694183,0.059104502,-0.21140249,0.19675998,-0.13328497,0.015628822
Rbm38,-0.2861448,-0.10418463,0.06426465,0.0013019681,0.28391817,0.24579631,-0.045664843,-0.14989667,-0.13122705,-0.093232185,0.18219413,0.0056221792,0.118564405,0.55169797,0.2156699,0.13357402,0.17534079,-0.028916804,-0.016508823,-0.13290478
Gnas,-0.011047666,-0.006418577,-0.033845097,-0.014462103,0.20855413,0.21802114,-0.011429798,-0.08098216,-0.23413713,-0.06884394,-0.00031314616,-0.42064577,-0.16067614,0.24926955,0.054576386,0.1384519,-0.009133704,-0.044626445,0.0068948553,-0.07346042
Ctsz,-0.15613927,-0.06188846,-0.04437263,-0.011090041,0.24961422,0.26242587,-0.056319684,-0.11594885,-0.15866578,-0.04618311,0.019081047,0.015631674,-0.15659076,0.35892555,0.027523583,0.10302621,-0.09426836,-0.03964083,-0.03233172,-0.053534675
Nudt11,0.17976363,-0.11924718,-0.057692327,0.1238026,0.06302298,0.05623794,-0.18325515,0.017950078,-0.3300131,0.034084767,0.13885117,-0.14576621,-0.3838079,0.3266723,-0.17234725,0.17059956,-0.34352374,-0.16076715,0.012712009,-0.16199332
Nudt10,0.12622982,-0.11204768,-0.013073251,0.17805752,0.04202881,0.10598439,-0.13332318,0.04899519,-0.24609154,0.050791357,0.06566328,-0.02567774,-0.49860787,0.36874756,-0.15139401,0.10212147,-0.33894733,-0.282511,-0.007137407,-0.092844605
Plp2,0.26081878,-0.26300415,-0.025513757,0.046857577,0.18681143,0.21886551,-0.006394167,-0.057086073,-0.24029295,-0.100912735,-0.03016922,0.011546511,-0.05907957,0.23922804,-0.15664661,0.19020434,-0.06458949,0.16962324,-0.017894303,-0.119434014
Pim2,-0.19181417,-0.78525156,-0.071117744,0.18940409,0.32463944,0.30893376,-0.013298858,-0.020558557,-0.20537214,-0.023226561,0.01461637,-0.72998,0.034131616,0.7134716,-0.4265593,0.13899988,-0.06915983,0.16361696,-0.0717405,-0.041369878
Pcsk1n,-0.1728493,-0.31766003,-0.048414998,0.017769359,0.3198641,0.48590893,0.07854955,-0.052418552,-0.12993789,0.10234568,-0.050692316,-0.37689263,0.3909742,0.7317803,-0.36325404,-0.030645445,0.16996883,0.21404143,-0.13483928,0.033437368
Eras,-0.11404732,-0.5923648,-0.06239744,-0.0014457483,0.09329492,0.3971708,0.079881765,-0.1196132,-0.11637124,0.042977348,-0.027926436,-0.3986018,0.18834335,0.9949228,-0.6805789,0.037360128,0.10411471,0.27632257,-0.111545034,0.15113553
Gata1,-0.8736292,0.038525328,0.041618768,-0.37369487,0.045934603,0.19978829,-0.14656135,-0.25073963,-0.015862947,-0.04548109,0.09621898,-0.4059831,0.6117185,0.3593798,0.33534318,-0.20853668,0.4403021,0.01901885,-0.07091716,-0.005256818
Suv39h1,-0.026276497,0.15312527,-0.014887078,-0.034631446,0.17069852,0.45831862,0.005884155,-0.04937182,-0.26384088,-0.03897473,0.013218712,-0.29697534,-0.12394818,0.13044588,0.14015535,0.17015159,-0.10727083,-0.125772,-0.038969826,-0.08877588
Slc38a5,-0.98134947,0.40484327,0.09811321,-0.21901116,0.09214508,0.27963153,-0.036952898,-0.11063867,-0.2471478,-0.003460848,-0.045492683,-0.9111042,0.043908603,0.056184497,0.08780522,0.033946887,0.03174257,-0.29559258,-0.033516698,-0.16659391
Rpgr,0.12917614,-0.07888993,-0.04449206,-0.057019245,0.1441359,0.26300848,-0.03921515,-0.061913885,-0.21739337,0.1450434,0.09958507,-0.5270604,-0.20805845,0.1881243,-0.1393218,0.0929629,0.19498041,-0.016970262,0.10438737,0.034927648
Tspan7,0.3356135,0.020686653,0.042762414,-0.015094314,0.14180243,0.30167198,-0.052030277,-0.22049624,-0.16536668,-0.16817929,0.081314914,-0.6820489,-0.2907424,0.43742684,-0.2700536,0.003087001,-0.4761354,0.005034372,-0.011667901,0.10289367
Mid1ip1,0.12300761,-0.21469553,-0.2546854,-0.26438254,0.36803052,0.19968833,-0.0834351,-0.16204877,-0.2734452,-0.13674775,-0.026453668,-0.97663885,0.12150785,0.2830386,-0.031425077,0.19406283,-0.055452436,0.06524919,-0.08570916,0.055916738
Chst7,0.43611485,-0.6626854,0.040881537,-0.027688652,0.31546482,0.061584655,-0.056559086,0.13462278,0.14043444,-0.04875813,-0.06308598,-0.8133033,-0.47335446,-0.4596178,-0.051997423,-0.08170029,-0.0019676392,-0.32542962,0.019239308,-0.13361315
Klhl13,0.23140462,-0.02562568,0.0148413675,0.16622117,0.2374584,0.22203945,-0.18546845,-0.21912897,-0.2504346,0.0042437934,-0.056269165,0.38413608,0.36256143,0.41926533,-0.084119566,-0.01138033,0.15305753,-0.058136597,0.09628835,0.05328964
Akap17b,0.034635052,-0.31030628,0.015648939,0.16830595,0.28020373,0.11064667,0.014608197,0.11341572,-0.15969941,-0.082326785,0.123194255,0.4508474,-0.0049783634,0.30304027,-0.3070688,0.041623835,0.29724276,0.11630654,-0.040023632,0.012616575
Slc25a5,-0.089761466,-0.09950057,-0.050046824,0.037233513,0.24672753,0.22965121,-0.05292503,-0.09523511,-0.2124653,-0.052449137,0.019416923,-0.25141436,-0.10568506,0.26982227,0.099953294,0.114084184,0.08991373,0.03157478,-0.008010434,-0.07987838
Rhox5,-0.06810212,-0.41775224,0.0057094744,-0.02450253,0.11148417,0.26498488,0.040361952,-0.12393091,-0.23245136,-0.067209445,-0.081601575,0.7551796,0.17600013,0.2731664,0.11530087,-0.0013348326,-0.033856876,0.12054369,-0.031192385,0.18066865
Rhox6,-0.4404523,-0.3090824,0.2937646,0.08553296,-0.06852866,0.16964658,-0.018127002,-0.11811873,-0.37319157,-0.081841,-0.26175955,0.94063663,0.4767318,0.40921402,-0.14071205,-0.043582678,-0.062331878,0.15796818,0.12455703,0.09208109
Dcaf12l1,0.052657347,0.026055934,0.061103817,-0.31863385,0.42022988,0.43841895,-0.14518122,-0.06279528,-0.17883717,0.031454112,0.25594306,-0.112510875,0.43176934,0.29417595,0.0766467,0.1209161,0.42330042,0.054027908,0.043299194,-0.03573228
Apln,-0.1670831,-1.0420514,0.08803683,0.13861665,0.26050198,0.11904795,-0.0144831,-0.045274783,0.4030504,0.1824285,-0.106912866,-0.2648618,-0.6728321,0.32145542,-0.08729331,0.35345465,-0.40932807,-0.42793542,-0.162178,-0.30860475
Mbnl3,0.26855293,-0.15772812,-0.07926225,-0.057138383,0.3535271,0.10605084,-0.11210656,0.05267468,-0.5113307,0.1895042,-0.13971256,-0.108273536,0.45217034,0.019617688,-0.13677377,0.3110093,0.05926586,0.13362236,-0.009578871,-0.13242462
Gpc4,-0.23964025,-0.16213351,-0.056290805,-0.10711632,-0.10020482,0.49360156,-0.03197071,0.09781675,-0.08154408,-0.2915038,-0.0521535,-0.30767703,-0.18930678,0.31972837,-0.41792777,0.11726032,0.16992266,0.42756647,0.17509158,0.29811126
Gpc3,0.21470022,0.076606445,-0.07764792,0.009053086,0.13280784,0.23755223,-0.14486022,-0.11292434,-0.2382566,-0.09380715,-0.008930705,-0.28179082,-0.5066414,0.012476424,-0.06477262,0.0513851,-0.4281022,-0.14832398,0.0633812,-0.014915942
Plac1,0.43098497,-0.10618627,0.10003274,-0.22769296,0.119514816,0.36634842,-0.06373896,-0.017714478,-0.4501459,0.050543256,-0.11820271,0.43036819,0.3090487,-0.30874008,0.4420913,-0.02796277,-0.8913702,-0.023421925,0.063966915,-0.4611355
Cxx1a,0.08881549,-0.28892362,0.0053721825,0.087494016,0.1379353,0.13405712,0.0028046598,-0.14194681,0.0008461454,0.07115077,-0.03968227,-0.48621088,-0.19372304,0.1065508,-0.19432822,0.27724653,-0.13389239,-0.26636088,-0.052539524,-0.08035592
Cxx1b,0.050482646,-0.3884711,0.03583421,0.049743477,0.17272161,0.15656202,-0.00016009982,-0.15675607,0.011944443,0.108894914,-0.050316337,-0.57179624,-0.13426642,0.103569984,-0.23218879,0.30895287,-0.14397244,-0.27712983,-0.092248335,-0.09371981
1700013H16Rik,0.01966185,-0.5845353,-0.12759681,0.19618987,0.20526485,0.2890772,-0.04694134,-0.08404061,-0.11388921,0.090980545,-0.018217517,-1.1978393,-0.08549528,0.6125384,-0.7793622,0.098014094,-0.058267824,0.10758118,-0.07901149,-0.073630705
Fhl1,0.33160296,0.0879257,-0.07071043,0.15196455,0.051667042,0.269356,-0.09120333,-0.13804552,-0.11908154,-0.17960866,0.086290896,0.1432189,-0.07672763,0.2857804,-0.19958895,0.17137533,0.059349906,-0.12466103,0.084879525,0.03944285
Zic3,-0.027086247,-0.5159939,-0.18448412,0.3624414,0.23930646,0.2334275,-0.09949091,-0.23367263,0.06618116,0.086966895,0.078372434,-0.5836244,-0.2940922,0.31232378,-0.7062872,-0.010836361,0.12873182,0.1784569,-0.032117248,0.5179502
Ldoc1,0.07761033,-0.41173232,-0.09149265,-0.163629,0.07216527,-0.05459857,-0.1339543,0.0017098942,-0.6281203,0.05085074,-0.10967992,-0.10669593,0.722983,0.4292974,-0.39779514,-0.006827026,0.23748523,0.33167005,-0.055530686,-0.19929537
4933402E13Rik,-0.34067908,-0.20344248,-0.03717159,0.057975166,-0.042676542,0.24709004,-0.14456761,-0.20291188,-0.26617205,-0.04921506,-0.06388746,0.5528235,-0.02311203,0.55100316,-0.005382508,-0.17270118,-0.58461976,-0.4350382,-0.073803484,0.23765172
Fmr1nb,-0.3047989,-0.65671855,-0.04273692,-0.1302298,0.122496516,0.19741759,0.049395517,-0.09774063,-0.28093275,-0.1112984,-0.14152043,0.5701825,0.0018967384,0.3280069,-0.0037848,0.03365841,-0.16304621,0.34231004,0.0038927305,0.08136747
Tmem185a,-0.013863285,-0.17808774,-0.16352867,0.08081099,0.06683363,0.19155942,-0.029073138,-0.17176901,-0.053971834,0.028340401,0.03182377,-0.16759992,-0.06910111,-0.061399188,-0.16276096,0.13638125,0.004963248,0.056086622,0.13832816,-0.22906098
Xlr3a,-0.024481388,-0.47026354,0.17315696,-0.09773842,-0.016444508,0.2585784,-0.115756676,-0.16564246,-0.31179366,-0.07984915,-0.037621394,0.72411746,-0.079393506,0.36463216,0.04989913,0.007241058,-0.026705557,0.20477156,-0.09881129,0.15418644
Xlr3b,5.1287476e-05,-0.29828793,0.035002198,0.027226252,0.108952865,0.22033234,-0.14238022,-0.17004749,-0.21326718,-0.084662795,-0.015580162,0.23390995,-0.09462059,0.31769288,0.0043711406,0.05359329,0.07591052,0.14584735,-0.07232473,0.07256588
Xlr4b,-0.16816668,-0.4342324,0.06927059,-0.12160234,0.023752214,0.24965203,-0.08293008,-0.19801149,-0.3204672,-0.088086314,-0.07714059,0.7942881,0.013420276,0.3118171,0.04495573,-0.11016393,-0.030819278,0.14673126,-0.15517604,0.19190615
Dusp9,0.18799572,-0.1325724,-0.15685958,0.105237514,0.15581195,-0.024278203,-0.08742284,-0.21199976,-0.23368947,-0.01119554,0.11553184,0.17711899,0.2090742,0.0100486865,0.12889701,0.028032983,-0.11989686,0.1910431,-0.101275615,0.03907933
Renbp,-0.013970127,-0.20608296,0.010728696,-0.020369325,0.07755024,0.19703491,-0.08160603,-0.016266914,-0.22226581,0.04080876,-0.013993625,0.19313161,-0.17956527,0.31658915,0.07834323,0.1773864,-0.112007804,-0.06423401,0.07079694,0.049971398
Flna,0.14855498,0.1372827,0.02212159,-0.22575939,0.40530446,0.18810311,0.07841572,-0.118890055,-0.16971985,-0.1649204,-0.06681878,-0.6889356,0.020635415,0.008984647,-0.36943012,0.034789953,-0.08605553,-0.043305874,-0.029075896,-0.12993932
Mpp1,0.050823834,-0.19125117,-0.09200868,0.0060914406,0.14576367,0.21724823,-0.09265628,-0.08876051,-0.23039146,0.039685015,-0.068156846,0.26524094,-0.024439089,0.17011641,0.1409478,0.24714388,-0.17900017,-0.032349393,0.044800397,0.08799494
Pls3,-0.09054264,0.025111733,-0.16362357,-0.07908909,0.113749966,0.38215107,-0.14723188,-0.1112369,-0.16849759,-0.047731593,-0.04162166,-0.86549395,-0.10904531,0.4872522,-0.26111868,0.09957612,-0.0825831,-0.06402293,0.12770832,0.04207872
Mageb16,-0.44516706,-0.66284823,-0.009791447,-0.11369164,-0.030990802,0.247211,-0.212113,-0.19876048,-0.26298663,-0.06407694,-0.17954841,0.91785014,0.27661526,0.319675,0.0019261047,-0.0975854,0.07037142,0.20358433,0.0044238293,0.19150285
Tmem47,0.22064163,0.1276204,-0.15653221,0.063812606,0.23284999,0.3311048,-0.09048426,-0.04548212,-0.08600096,0.013729855,0.033976614,-1.028364,-0.18313849,0.1319067,-0.3258271,0.012338053,-0.13726524,-0.08224849,0.03623807,0.008714578
Nr0b1,0.011750084,-1.2172909,-0.020657683,-0.056152895,0.30280206,0.3599498,-0.02981604,0.09612452,-0.10246372,-0.13662554,0.13143054,0.06837572,0.71939605,0.40483293,-0.40549704,-0.030634405,0.6668173,0.083655275,0.078403816,0.34493703
Maged1,0.17356361,0.053561248,-0.034373317,-0.025659714,0.14297695,0.22732833,-0.08293309,-0.093936294,-0.23563443,-0.062010597,-0.017914917,-0.44934848,-0.18948379,0.16201197,0.08381846,0.13138877,-0.101500414,0.006165759,0.025566276,-0.0633283
Stard8,0.4561703,0.14518195,-0.34360486,-0.3500661,0.197855,0.16913567,0.020997321,0.051449895,0.09825454,-0.27504683,0.28796533,0.58155954,0.25018016,-0.17569411,-0.10943519,0.02261947,-0.27100968,0.028666327,-0.09045164,-0.15033281
Efnb1,0.21532027,0.4386473,-0.18084536,0.14138001,0.23016535,0.32123452,0.10473977,0.122508444,0.11427132,0.12714842,0.11066752,0.068465434,-0.059032675,0.04410633,-0.28984872,0.18516444,-0.49207377,-0.33886507,-0.20497333,0.08120485
Slc7a3,-0.16110353,-0.7685512,-0.13212466,-0.02304761,0.38127965,0.34711668,-0.1361207,-0.12048219,-0.36680987,-0.11287147,0.06458151,-0.89501065,-0.04141805,0.7573848,-0.55091834,0.116402484,-0.08634402,0.0036386654,0.011087841,-0.09043516
Foxo4,-0.17259474,-0.107414074,-0.08306297,0.072660476,0.09789517,0.32585287,0.022695012,-0.09320342,-0.21225688,-0.19239771,0.12466199,0.012279167,-0.08179836,0.13404201,0.12629946,0.2394717,-0.39817694,-0.04350312,-0.042590227,-0.25115365
Cited1,0.035622343,-0.16741167,0.04787748,0.2591455,-0.02874312,0.16603437,-0.012731296,-0.21574748,-0.28988397,-0.18820052,-0.15936193,0.5442105,-0.19760682,-0.14366664,0.04390345,-0.112424865,0.115018725,-0.288159,0.014428505,0.11354847
Cdx4,0.25089353,-0.20604563,0.045495316,0.09361407,-0.1763137,0.6759344,-0.00965139,-0.057322778,-0.43788305,-0.2917837,0.19619595,-0.55725986,-0.11136356,-0.745639,-0.34465152,0.11187272,0.3681123,-1.0509306,-0.051081434,-0.46302867
Xist,-0.37487096,0.10069285,0.25772896,-0.14664575,0.67214257,0.20467879,-0.31138542,-0.1096757,-0.1434038,-0.24779119,0.18616723,-0.06538243,-0.13707176,0.017980821,-0.496677,0.10317289,-0.010430129,0.21969984,-0.2846315,-0.12617935
Lpar4,0.3097925,-0.2569454,-0.10243978,0.15618528,0.40382534,0.48617247,-0.12000265,-0.045936726,-0.23634717,0.04693328,0.07495497,-0.948791,-0.25730273,0.23287952,-0.4291833,0.002305785,-0.03532216,-0.116491824,-0.0016939212,-0.1026455
Itm2a,0.15495275,0.08306135,0.042697873,-0.32595423,0.32122403,0.31787977,-0.1279232,-0.120301075,-0.29945832,0.08803952,-0.061902195,-1.1520102,0.10715407,0.33516276,0.043262813,0.17433432,-0.24076237,-0.17135143,0.07758058,-0.17772287
Tspan6,0.06852784,0.04528526,-0.07606858,-0.05976283,0.24166356,0.240345,-0.095932096,-0.11818585,-0.21426766,-0.03868235,-0.022178993,-0.8289648,-0.24326535,0.1859359,-0.114224546,0.053894576,-0.118265264,-0.10312696,0.0066985693,-0.07502808
Nxf7,0.067711644,-0.16719604,0.11792916,-0.19937049,0.17242813,0.45250544,0.0060424125,-0.061141472,-0.4221674,0.146904,-0.090944655,0.5938772,0.19928558,0.17436053,0.425164,0.00019787467,-0.9553702,0.06526781,0.028950002,0.15838498
Bex2,0.0135382125,-0.036930576,-0.083435364,0.03704338,0.18806429,0.22057064,-0.019803936,-0.040105667,-0.26508203,-0.06407971,0.045402855,-0.38195792,-0.2865008,0.2559493,0.018706737,0.19333892,-0.2722569,-0.12304846,-0.016732043,-0.07846885
Bex4,-0.16787545,-0.088643104,-0.090474285,-0.0049963803,0.1618773,0.2566005,-0.016102362,-0.116043046,-0.19607438,-0.08422539,0.0151440315,-0.33084247,-0.24863051,0.39591226,-0.022057746,0.15468872,-0.16054375,-0.120892175,-0.034515563,-0.16091064
Tceal8,-0.023858082,-0.054305032,-0.08853802,0.03649069,0.19496867,0.22959924,-0.07131277,-0.11607172,-0.21081859,-0.045845993,-0.0096586505,-0.4754251,-0.25112924,0.23354688,0.021689685,0.16735741,-0.1844534,-0.07248271,-0.02005457,-0.09830393
Bex1,-0.028403463,-0.15173548,-0.08279739,0.024734039,0.19252683,0.27772474,0.011931134,-0.111183256,-0.2207826,-0.0794881,0.026015993,-0.06957823,-0.03293594,0.36404407,-0.061459716,0.1444576,0.067322694,-0.0021074372,-0.04225986,-0.14525278
Bex3,0.04337213,-0.063688405,-0.061900005,0.0641797,0.22392665,0.22440358,-0.0028282448,-0.102495685,-0.2184487,-0.07162186,0.016122354,-0.12931117,-0.04004949,0.26350445,0.0080155665,0.1470879,0.058817457,0.07234231,-0.031187875,-0.06712041
Zcchc18,0.10885701,-0.26213664,0.11099653,0.060871705,0.111046456,0.17243937,-0.04495069,-0.04462031,-0.49287686,0.12290183,0.09578945,-0.8941602,-0.2094818,0.51276994,-0.6854671,0.13015994,0.07876392,-0.1650691,0.17295867,-0.060648635
Nrk,-0.08040951,-0.1569153,0.15718274,-0.2684486,0.10485526,0.33139104,0.108163014,0.05899135,-0.5222408,-0.1659351,-0.10047994,0.501871,-0.16604802,0.042115476,0.09496899,0.07157606,-0.7552581,-0.12521291,0.10733276,0.08340132
Mum1l1,0.028250271,0.2130354,-0.0706461,-0.017060703,0.055894583,0.2764308,-0.04733684,-0.17295179,-0.08922419,-0.14036427,0.041004214,-0.15717597,-0.24593931,-0.13599652,0.103431,0.030092604,-0.3338265,-0.07587764,0.13581286,-0.0019420685
Trap1a,-0.19629835,-0.6574665,-0.010924313,-0.14317243,0.09768597,0.2267554,-0.044263177,-0.11041769,-0.26256257,-0.08283331,-0.11670442,0.7080977,0.09277417,0.5792193,-0.20688668,-0.028968794,0.03237739,0.15260805,-0.022545181,0.10755709
Rnf128,0.057814445,-0.27893138,0.0012750243,-0.122860365,0.0835518,0.4833107,-0.14230938,0.015542064,-0.2802648,-0.032699976,0.019734228,0.56594,0.051048625,0.035209805,-0.13525957,0.059648875,0.16116942,0.07786704,-0.04019224,-0.12253851
Morc4,-0.016907034,-0.27710617,-0.090516105,0.06462967,0.2253752,0.47452885,0.01835153,-0.05794149,-0.14776467,-0.08635831,0.10772882,0.80789036,0.41044727,-0.18489397,0.21023166,0.15437168,-0.024996407,-0.051765226,-0.07779292,-0.038321316
Nup62cl,0.1944038,-0.26538235,-0.03975203,0.06416018,0.15866634,0.43781722,-0.111310534,0.061018016,-0.11749544,0.12275996,-0.034038197,0.3527196,0.36871925,0.18395852,0.096505396,0.1654635,0.12954031,0.055884223,-0.06287906,-0.009872235
Prps1,-0.1009044,-0.19638216,-0.0087534785,0.072340935,0.33719006,0.28474596,-0.12495201,-0.1268784,-0.23156609,-0.034626674,0.036763757,-0.78034383,0.050014064,0.27335528,0.04970063,0.08534405,0.33556944,0.092191175,-0.013821577,-0.015389497
Amot,-0.043587834,0.107649714,0.08887291,-0.20368151,0.25330076,0.4838058,0.04701345,-0.035181534,-0.17754328,-0.045669,0.0686704,0.08167591,-0.2897522,-0.27345324,-0.06703851,-0.1675242,-0.5220068,0.13625166,0.0013910758,-0.12247796
Maged2,0.3890388,0.015469745,0.06006337,-0.18879126,0.12730047,0.20458046,-0.05160369,-0.018135345,-0.2318284,-0.044072036,-0.16602293,-0.57515746,-0.086629435,0.12226237,0.007127711,0.20244512,0.024595046,-0.11225457,0.115325175,0.03800098
Usp51,-0.4641645,0.21296193,-0.18644063,0.049892943,0.3297236,0.15750808,0.008613995,0.24362282,-0.012123247,-0.07466204,0.19014353,-0.39689434,-0.40252146,0.07235964,-0.053199157,0.2625565,-0.35401532,-0.2837356,0.031738676,-0.01021193
Spin2c,0.46275017,-0.07604959,-0.09616502,0.014138869,0.042457346,0.5281905,-0.004282657,-0.10769542,-0.4973491,-0.05518109,0.13282427,-0.24765244,0.28089634,-0.25064328,-0.09240796,0.11339479,-0.2870017,0.093262166,-0.0855249,-0.13774447
Sat1,0.046448354,-0.16902034,0.021215238,-0.1712776,0.025383169,0.17593814,-0.04737657,-0.15100864,-0.050400138,0.059659954,-0.09351344,-0.017574355,-0.26019055,0.18398125,0.10165545,0.13176478,-0.109998554,-0.047070358,-0.07936888,-0.15419662
Rbbp7,0.011643774,-0.050121397,-0.083047375,0.052213248,0.15959372,0.23620123,-0.106111415,-0.13522889,-0.20488167,-0.016111404,0.011508436,-0.2338329,-0.08783807,0.20541035,0.03914539,0.17325236,0.008126695,0.03588727,-0.02592594,-0.07167106
S100g,-0.21922716,0.19907832,-0.089001045,-0.06330926,0.051348805,0.1148417,0.06189367,-0.0087819435,-0.3868376,-0.02414961,-0.10741005,0.4623089,-0.14485689,0.4991954,0.11725845,-0.024750585,-0.38005307,-0.92393315,-0.05447374,0.26980034
Tmsb4x,0.19531134,0.0424026,-0.10609645,-0.07852053,0.1743743,0.1909483,0.013532146,-0.046636987,-0.10422247,-0.06377272,-0.04005675,-0.28796208,0.033874217,0.28568745,-0.0101705035,0.16555634,0.28094506,-0.13081174,-0.008168847,0.014409101
Stmn2,0.22544248,-0.37881976,-0.13979319,0.12009244,0.2109644,0.30703068,0.039777253,0.0018465848,-0.1430922,-0.21469809,0.006024389,-1.2146171,-0.03792596,0.44677085,-0.5825275,0.09802351,0.038578097,-0.25762296,0.12775545,-0.032904536
Hey1,0.5207265,-0.16267458,0.30085123,0.0737725,0.061035555,0.22614445,-0.14448583,-0.12701163,-0.26032904,-0.07069475,0.019377805,-0.3640615,-0.4272242,0.25167167,0.07581954,-0.033219066,-0.2595958,-0.0054052747,0.16625503,-0.2888586
Tpd52,-0.013441856,-0.52462393,0.06264344,0.013970484,0.08720521,0.20340984,-0.099647515,-0.08377486,-0.24873477,-0.09131148,0.027207479,0.11509122,-0.20709182,0.6689769,-0.21808736,0.10444982,0.079445586,0.066589355,-0.03279916,-0.20484719
Fabp5,0.010618831,-0.02234547,-0.0713478,0.06635907,0.2603228,0.23434372,-0.017057255,-0.1298007,-0.21296927,-0.08944037,-0.00165618,-0.62311053,0.038793724,0.3218028,-0.0735691,0.09729402,0.3152543,-0.010255192,-0.013077649,-0.085186884
Car3,0.2555568,-0.31412616,-0.03736153,0.16604586,0.28629276,0.051471468,0.032203916,-0.24344842,-0.18248014,0.07621721,0.2987374,-0.92120475,-0.19125241,-0.3080657,-0.345653,0.087109245,0.045914818,-0.509239,0.23560417,0.26243535
Car2,-0.48561627,-0.19905257,-0.048586085,-0.12884004,0.029134909,0.19347304,-0.101627775,-0.096120104,-0.016520856,-0.12336928,0.033647522,-0.32067463,-0.053632956,0.34215233,0.14512141,0.01466991,0.22713433,0.36612257,-0.0010268195,-0.076149814
Gyg,-0.10668043,0.14793883,0.009019232,-0.09959852,0.14700909,0.21200243,-0.15390138,-0.2413059,-0.14661308,-0.113469794,0.16057679,-0.18151791,0.031825844,0.20822541,0.15155603,0.18866588,-0.12039166,-0.11577389,0.12877099,-0.13340987
Slc2a2,-0.37571523,-0.4285221,-0.18786146,-0.05170078,0.26220286,0.32371092,-0.22598869,-0.017067622,-0.2895147,-0.034423128,0.036425967,0.5391469,-0.13720943,0.31564388,0.039704062,-0.15477411,-0.7286374,-0.81971526,-0.029618599,0.32009974
Rpl22l1,-0.06260282,-0.03341699,-0.08937671,0.042825088,0.28511393,0.22601956,-0.009923047,-0.11856413,-0.23171811,-0.06865373,-0.009084134,-0.24913748,-0.1162546,0.25832283,0.03625266,0.07461499,0.13075109,0.01795642,-0.027609337,-0.12119388
Gnb4,0.085014954,0.16153622,-0.06322726,-0.08826197,0.15110579,0.2545471,-0.051434826,-0.020228427,-0.14309447,-0.007770619,0.07934072,0.113100745,-0.13628386,-0.07872537,0.28648287,0.24670836,-0.24879417,-0.32504073,-0.011298336,0.06510459
Sox2,0.19338223,-0.26925623,0.07580565,0.15246733,0.38347122,0.35045654,0.035218857,0.079061076,-0.23582524,-0.17785896,0.21450888,-0.30196172,0.07844515,0.8610744,-0.774498,0.09286078,0.6629439,-0.020595137,0.057262126,0.028815841
Anxa5,0.46554434,-0.09742591,0.060275443,-0.27938023,0.0746585,0.04328443,-0.082291275,-0.095833115,-0.119569235,-0.04393107,-0.14179105,0.026106795,0.22619171,-0.062024686,0.10604381,0.14700401,0.55551946,-0.033859678,-0.01216702,0.15606737
Noct,-0.16566238,-0.18067336,0.024173494,0.023898039,0.25019488,0.28678396,-0.15042374,-0.100729115,-0.19888563,-0.08009017,0.027268568,-0.11532727,0.10203814,0.24679993,-0.039610792,0.12898636,0.37411723,0.23723206,-0.011729255,-0.05299938
Mgarp,0.16228962,-0.123076625,0.0435899,0.17737368,0.3812746,0.32420117,-0.13343735,-0.16162051,-0.15810241,-0.012194119,0.036891967,-0.30855092,0.56766415,0.122155055,-0.087426186,0.2180779,0.35794926,0.12159706,0.042426787,0.07014679
Lhfp,0.40617576,-0.14190498,-0.12382526,-0.22309998,0.36372405,-0.03151155,-0.1973036,0.012151655,-0.053614493,-0.2481592,-0.07254519,-1.0014569,0.035625506,0.0128336055,0.12280779,-0.09111977,-0.18572,0.19875781,0.11880024,0.13317697
Pfn2,0.35864896,0.103777155,-0.016075563,0.10768206,0.15854561,0.25027835,-0.12607208,-0.13015029,-0.30933625,-0.06624649,0.07967479,-0.43153486,-0.18031938,0.4111488,-0.31055507,0.16196941,0.043228604,-0.08065567,-0.02590011,0.07118108
Mlf1,0.23174861,-0.24252705,0.08667309,0.012684831,0.100658074,0.17125203,-0.020896098,-0.09567916,-0.3169178,0.12737559,0.14720303,-0.5499571,-0.17723165,0.25432837,-0.2665534,0.15178248,0.17842567,0.055138264,0.057036605,0.1094786
Lxn,0.24560754,-0.10904015,0.008142836,0.026773987,0.0064110383,0.15537275,-0.024824902,-0.08538248,-0.110997654,-0.14661139,-0.104884766,0.47167233,-0.027787577,0.13240376,0.12491318,0.054249357,-0.12415206,-0.24982566,0.07420959,-0.062467504
Mfsd1,-0.0058754957,-0.108927615,0.0013477647,0.063432805,0.3001061,0.25534886,-0.1166823,-0.04664275,-0.17015164,-0.06394404,-0.0054759653,0.21424311,-0.17445661,0.18591936,-0.04299899,0.09122066,-0.07931464,-0.12493343,0.02584108,-0.015290421
Fgg,-0.47143677,-0.30756634,0.03543754,-0.24641557,-0.042631783,0.22349581,0.021418137,0.046338674,-0.5595107,0.2993732,0.057231445,0.3801235,-0.5115493,0.17046095,-0.08599949,-0.012850276,-0.5944269,-0.44166166,0.054512598,0.34858105
Fgb,-0.30127013,-0.11702345,-0.047800604,-0.1899551,0.09707067,0.34237248,-0.030453747,-0.05410962,-0.23388806,-0.031286668,-0.013686919,0.40749723,-0.29673633,0.5105393,-0.037947223,-0.059048317,-0.7666393,-0.73421514,0.06659735,0.3907427
Sfrp2,0.32266527,-0.08792743,-0.03230546,0.28485322,0.3528589,0.29677758,-0.084140666,-0.076495655,-0.2825951,-0.1537296,0.086147234,-0.8343643,-0.11651949,0.53481394,-0.40756297,0.054188624,0.15467402,-0.37873545,0.045902405,-0.09328677
Crabp2,0.10058266,0.09489678,-0.085583165,0.391812,0.23162846,0.07376358,-0.041789692,-0.0048901066,-0.37683478,-0.06591417,0.0042726477,-0.38999832,-0.25897565,0.5607962,-0.46483335,0.12833491,-0.019632721,-0.8553449,0.09799674,-0.07049659
Glmp,0.02435151,-0.15248728,0.0033477193,-0.029757222,0.2104547,0.20345214,-0.0886966,-0.020775363,-0.1885846,-0.037956,-0.039626636,0.062722504,-0.20571305,0.26967523,-0.0487321,0.13076529,-0.080452085,0.023628304,0.034839462,-0.07855629
Lmna,-0.29407436,0.08797999,-0.037423663,-0.03375977,0.16455424,0.21452522,-0.06849179,-0.06295935,-0.19833714,0.04823246,-0.081602275,0.40746626,0.16625631,0.2587306,0.23172213,0.23783775,-0.038668137,0.11554085,0.04918691,0.08939173
Rab25,-0.112890266,-0.71412134,-0.1418228,-0.013682484,-0.064570114,-0.008440317,-0.04659034,-0.062601455,-0.29695174,-0.0957779,0.054277077,-0.32504305,-0.09935325,0.84232,-0.8009531,0.06192477,-0.21897618,0.3298118,0.022523217,-0.2994944
Efna1,0.5971661,-0.4554646,0.18117617,0.020263722,0.039757233,0.13071501,-0.022979358,-0.12460661,-0.15325108,-0.2023519,-0.17913797,-0.00083910784,0.27827188,-0.34434962,-0.16239631,0.042299945,0.07390534,-0.12262435,0.17949085,-0.46452087
Efna3,-0.01800904,-0.50827193,0.17948902,0.560587,0.071110405,0.07738603,-0.041452546,-0.047038026,-0.17470269,-0.18731672,-0.113935366,-0.0020862257,0.11132871,-0.20286605,-0.22699207,0.0031465883,0.28389636,0.55666476,-0.04846038,0.0054671443
4933434E20Rik,-0.061856512,0.12621494,0.03869331,-0.077292845,0.27620393,0.19828087,-0.0064065014,-0.124831975,-0.32263425,0.006691739,0.0622991,-0.1097367,-0.20422736,0.25937733,-0.07229265,0.11457044,0.087546244,-0.08489763,0.041637227,-0.090407304
S100a1,-0.13465032,-0.2383732,-0.026382767,0.09844289,0.2243637,0.09660247,0.032256454,-0.032278452,-0.20010456,-0.03664008,0.015945265,0.311712,-0.08134961,0.20437953,0.22238228,0.10447459,-0.3041699,-0.12784708,-0.053067014,0.052381076
S100a13,0.044235557,-0.10222818,0.09030463,-0.14268327,0.30008784,-0.03765494,0.09959592,-0.0473129,-0.14106697,-0.089526385,-0.056533195,0.5739952,0.08528316,0.17662562,0.409638,0.17470698,-0.0016365331,-0.012050221,0.09312374,0.021255469
S100a16,0.2606484,-0.18610969,0.15118447,0.010075198,0.050403092,-0.19046913,-0.08742435,0.011713845,-0.11386509,-0.31130287,-0.17126818,0.2508535,-0.42529425,0.42405882,0.2195594,-0.10799016,-0.56382126,-0.6670798,0.09179492,-0.021863412
S100a6,0.3792347,-0.13905607,-0.05639745,-0.09040194,0.21953785,0.10026331,-0.004617962,-0.02613702,-0.28079477,-0.17521538,-0.25558022,0.05941305,0.60753363,0.23465142,-0.038824495,-0.035232108,0.60712063,0.037381195,0.009652356,-0.01206736
S100a11,0.16821472,-0.08436353,-0.094465636,-0.014021697,-0.025699304,0.09081766,0.005851703,-0.14878519,-0.2192097,-0.12545645,-0.17361845,0.2177016,-0.020103998,0.007038103,0.11465417,0.121761076,0.122643836,-0.009350998,0.068911985,-0.15593202
S100a10,0.07258065,-0.06965351,-0.096354835,-0.08075223,0.04032519,0.16975236,0.038483568,-0.04440163,-0.0987439,-0.119438134,-0.07241392,-0.04356633,0.0682559,0.016372476,0.19669802,0.09908791,0.0292967,0.23598252,0.013011906,-0.13146372
Car14,0.13287415,-0.24544169,0.06256187,0.19919077,0.29506522,0.17739007,-0.11216992,-0.12506066,-0.35142985,-0.10877549,0.11141554,-0.7233838,-0.4541789,0.24679951,-0.18036139,0.08724698,-0.3705305,-0.078543216,0.0034171639,-0.13297519
Pdzk1,-0.44122335,-0.66653264,-0.11919961,0.13983582,0.041069552,-0.006269062,-0.052180212,-0.04087119,-0.146725,0.08339023,-0.024916839,0.2092934,-0.31417632,0.11464727,-0.010883796,0.10563887,-0.54980683,-0.4307419,-0.041010346,0.20876227
Phgdh,-0.11623374,-0.10659991,-0.064379424,0.059307683,0.2114643,0.22230852,-0.084680825,-0.10825805,-0.20872995,-0.05441603,-0.0007792546,-0.14748879,-0.114784904,0.4006954,0.045483284,0.14393732,0.01506192,-0.023159172,-0.012093213,-0.08105578
Slc16a1,-0.14855893,-0.033986095,-0.0857711,-0.05942309,0.13169202,0.2542214,-0.082621336,-0.14283241,-0.11800085,-0.038043763,0.053782463,0.12399712,-0.2578609,0.287484,-0.063303016,-0.089138255,-0.056381628,0.09939407,-0.050750386,-0.056713182
Rhoc,0.34091854,-0.29138368,0.011534956,0.054036807,0.2936031,0.12954192,0.013238685,-0.025209015,-0.19309884,-0.028892621,-0.014309259,0.05358859,0.013683284,0.33510017,0.030262912,0.25374427,-0.21314798,0.06568436,-0.00082758476,-0.08821202
Dram2,0.042377774,0.0905874,0.021182636,-0.20489539,0.042188533,0.25687927,-0.093774624,-0.15087162,-0.10333258,-0.021106876,-0.043556087,0.039548732,-0.21390715,0.1801226,0.07402986,0.11777337,0.0249088,-0.115884684,0.015584566,-0.0439302
Gstm5,-0.06389746,0.0926696,0.0078074704,0.031077119,0.22088026,0.14664155,-0.023659697,-0.084399015,-0.2748206,0.025747,0.014856783,-0.36790437,-0.17140919,0.25122777,-0.018407628,0.119434305,0.23123759,-0.13471965,0.030998759,0.028086774
Gstm1,-0.14235806,-0.37248436,0.096104376,0.10738022,0.22914913,0.13181996,-0.04347815,0.0046623047,-0.3867328,-0.00019470837,0.029953739,0.06214359,-0.3135538,0.5546626,-0.05366929,0.20379804,-0.14314857,-0.16323593,0.076659456,-0.027557587
Arhgap29,0.46663454,0.25915828,-0.14379832,-0.19117947,0.2616528,0.27712598,-0.020162426,-0.15974918,-0.17882253,-0.097667925,-0.029503444,-0.15595101,0.31514734,0.16689067,-0.15888932,0.06747639,-0.13524616,0.034588758,-0.053026456,-0.20392741
Larp7,-0.01950361,-0.112832755,-0.05639702,0.010706253,0.19731835,0.22555208,-0.0115352,-0.050712768,-0.24791314,0.009894968,0.039762013,-0.40319788,-0.12023223,0.31116495,-0.054526467,0.06462555,0.093223415,0.072037004,-0.010816044,-0.06238157
Pitx2,0.109021425,0.47614977,0.118950546,0.10097357,0.06716876,0.21966885,-0.22205885,-0.07619945,-0.7394774,-0.19554274,-0.26042625,-0.22863641,-0.27844256,-0.023053924,0.04865264,0.36474076,-1.0363157,0.46804428,-0.3056608,-0.0016447268
Lef1,0.35506585,-0.3523476,-0.042064384,0.13729037,0.20697038,0.2142064,-0.13201125,-0.00602569,-0.45657513,-0.17107688,0.023853576,-1.078181,-0.3169821,-0.20398253,-0.16749625,0.115598544,-0.031753823,-0.14164658,-0.06879478,-0.022284413
Slc39a8,-0.60276234,0.33783215,-0.07948803,-0.3913467,-0.09168905,0.10977768,-0.10539516,-0.22234075,-0.022256384,0.042004943,0.11219197,-0.16320133,-0.2983653,0.20203944,0.31222183,-0.08220049,-0.37654814,-0.09312901,-0.05088955,-0.0005011451
Mttp,-0.2315248,-0.0358037,-0.01835334,0.060897868,0.25345385,0.25225565,-0.15155603,-0.07213069,-0.13349563,-0.13420194,0.027349005,0.1500254,-0.38664716,0.27729997,-0.11195597,0.04851511,-0.30407265,-0.15764445,0.059290186,0.05284227
Pdlim5,-0.0398769,-0.08488136,0.0872044,-0.024007324,0.22587019,-0.02729926,-0.026285069,-0.21705323,-0.0031446735,-0.29939964,0.078580245,-0.13012037,-0.15339419,0.020434247,-0.0001545489,0.3178035,-0.010692758,0.039893072,0.23356602,0.07530749
Lmo4,0.1539353,0.028354628,-0.05477215,0.07287665,0.3151187,0.19069707,-0.06939155,-0.12260724,-0.17279674,-0.12303983,-0.003976885,-0.16833329,0.0072681736,0.2206919,-0.18789029,0.03939326,0.33334062,0.10248729,-0.11842959,0.069816716
Cyr61,0.4046654,-0.01733937,0.108717225,-0.18900485,0.4534006,0.3073357,-0.17879581,-0.2630525,-0.116890416,0.032277875,-0.09274434,-0.23923197,0.19025284,0.036546543,-0.40212098,0.025550736,0.2700011,0.26111707,0.17330322,-0.09758098
Ddah1,-0.38581708,-0.0907472,-0.017302582,-0.14474295,0.29737392,0.33078423,0.008725897,-0.12708038,-0.0043624714,-0.05244131,0.05281856,0.10234858,0.30874038,0.5400216,-0.012754541,0.06990898,0.38073528,-0.16591206,0.0056086187,-0.07362638
Ssx2ip,-0.49657232,0.14055935,0.0049031377,-0.10832418,0.13808322,0.17974435,-0.047497403,-0.1542431,-0.18508849,-0.03865973,0.06502958,-0.45828784,0.046324708,0.27762967,0.18467715,0.10457799,0.17984754,-0.056987848,-0.013617224,-0.1027249
Gipc2,0.011033664,-0.23657072,0.015026801,-0.031489756,-0.026210759,0.24173711,-0.090650626,-0.15648825,-0.2548817,-0.13837543,-0.028282145,0.36764592,-0.14303851,0.48852623,0.053793173,-0.07955907,-0.82768637,-0.4064156,-0.013657155,0.106126025
Wls,0.26863378,0.16451405,-0.10875271,0.18478604,0.12305384,0.2313319,-0.20136529,-0.107656255,-0.07209286,-0.009987572,0.0065628053,-0.09517655,-0.095593475,-0.015555133,-0.26744333,0.052665852,-0.066492625,-0.11014717,0.07415073,-0.005356352
Plekhf2,-0.07773504,-0.3323655,-0.028721409,0.0017560454,0.10502474,0.2867045,-0.11801808,-0.15477195,-0.121105425,-0.056742772,0.08585846,0.027151264,-0.14102265,0.3199615,0.015471522,0.11990549,0.14288232,0.21938306,-0.019400122,-0.19265907
Cpne3,0.09182026,-0.14941365,-0.034249544,-0.05513119,0.2522791,0.22315267,-0.07543597,-0.07100614,-0.14743683,-0.11281167,0.07317135,0.21191703,0.11813559,0.22491571,-0.12241913,0.075913355,0.32042375,0.04504019,-0.019296607,-0.039874014
Rragd,-0.34697533,0.23146842,-0.0781143,0.0075687976,0.34178603,0.18135655,-0.050814148,-0.060353294,-0.4122031,-0.095823586,0.15372081,-0.9729779,-0.19106573,0.27470928,-0.38063398,0.3037003,-0.0069152787,0.10456215,-0.0135782305,-0.050871484
Aqp3,-0.6152719,-0.14872521,0.04399936,-0.0005503357,0.16955727,0.21458039,-0.2033913,-0.040588886,-0.43674174,0.07833154,-0.015049415,0.60482365,-0.19761248,0.22022693,0.044895954,-0.05167683,-0.235028,-0.5069297,-0.0013931333,0.14006428
Cntfr,0.33363995,-0.048202783,0.1263571,0.261455,0.40549615,0.29437304,0.115551114,-0.02160545,-0.2011871,0.19099325,0.07993531,-1.0063859,0.06990196,0.42680234,-0.47681975,0.3116455,-0.20352317,-0.5790821,-0.048490297,-0.026544875
Tpm2,0.2529749,-0.033741612,0.023041809,0.064447805,0.24086511,0.13769963,-0.041443482,-0.113280624,-0.26878566,-0.059646375,-0.0417063,-0.33223754,0.15062666,0.3420048,-0.1593294,0.27173555,-0.08545224,0.014619874,-0.008904477,-0.0410711
Creb3,0.13057068,-0.064060725,-0.0028929198,-0.0966525,0.20950375,0.17176668,-0.048032004,-0.032640494,-0.18645966,-0.04972564,-0.006302761,0.12524132,-0.08295671,0.21059784,0.06921098,0.25203967,-0.20906442,0.02401079,-0.011597938,-0.03871419
Glipr2,-0.05916804,0.122352965,-0.082983576,-0.39817253,0.23120402,0.27040452,-0.10004395,-0.062312935,-0.2941208,-0.011564633,-0.1221974,-0.65957564,0.36070716,-0.018053785,0.2276498,0.19064987,0.32466826,0.19593282,-0.029521901,0.11457321
Clta,-0.023553573,-0.11026081,-0.05335189,0.03544201,0.24198465,0.22571371,-0.024731515,-0.0985135,-0.18897061,-0.065562285,-0.0013348284,-0.12435893,-0.07862132,0.260909,0.08403588,0.10582887,0.084562875,0.03782789,-0.014521836,-0.09430405
Tomm5,-0.130617,-0.069020845,-0.06996005,0.073032945,0.26105088,0.24543336,-0.0070998506,-0.08965996,-0.21768117,-0.10299284,0.009328759,-0.15986362,-0.092469335,0.28748447,0.13551904,0.09812581,0.057458412,0.039303884,-0.058179125,-0.11729355
Igfbpl1,0.21532246,-0.018383702,0.20717286,0.4511295,0.22284198,0.16536911,0.04224544,-0.41801557,-0.11392835,-0.3585278,0.23062856,-0.7223178,-0.22163117,0.0832575,-0.44036373,-0.06372882,-0.29853836,-0.26460898,0.19749816,0.15883386
Aldob,-0.41061026,-0.3847565,0.06421703,0.09105217,0.16700625,0.2407506,-0.038977977,-0.080364704,-0.30717978,-0.045062263,-0.0028316942,0.42262784,-0.13178329,0.4144591,0.17324385,0.045998868,-0.7692722,-0.69505566,-0.027829226,0.3022443
Tmem245,-0.21423966,-0.024163911,-0.010102639,-0.10149126,0.5840225,0.25293517,-0.033114936,-0.10902327,-0.2105945,-0.14409514,-0.033218283,-0.047784265,-0.08500148,0.04863275,-0.3236674,0.018683745,-0.026549226,0.12164872,-0.0680112,-0.22444172
Lpar1,0.12618373,0.13630943,-0.06192208,0.085467964,0.14993688,0.20755239,-0.13763371,-0.18779239,-0.038447224,-0.09226586,-0.16145214,0.07372014,-0.44367763,0.23182634,-0.25236952,-0.14015153,-0.2318933,-0.33106717,-0.03343287,0.13813062
Alad,-0.23854728,0.12874104,-0.0056236912,-0.014333951,0.14575283,0.20372958,-0.03784188,-0.034963973,-0.26314855,-0.058454014,0.035230234,-0.28376374,-0.06510836,0.24407724,0.15933605,0.15301411,0.24157326,0.032519013,-0.021599757,-0.11135108
Psip1,0.03271578,-0.11226383,-0.04766766,0.06849349,0.24193226,0.25477767,-0.030795671,-0.11414382,-0.26451537,-0.07257208,0.014928978,-0.47589806,-0.081170216,0.28669122,-0.07546807,0.106062844,0.19017676,0.052657165,-0.008758327,-0.07966143
Plin2,-0.19646221,0.15402098,-0.057740625,-0.20543024,0.088496685,0.26382312,-0.06468385,-0.07431688,-0.31863707,-0.027410092,-0.0065618125,-0.13451017,-0.1337534,0.13295521,0.1363758,0.17764623,0.12823464,-0.10525851,-0.00074861536,-0.0002640308
Mllt3,-0.3650984,0.350532,0.11789996,-0.07142155,0.052506644,0.32473502,-0.021795124,0.02500162,-0.3732069,-0.08667486,0.100194246,-0.17885374,-0.33194247,-0.03746004,-0.05224137,0.22783092,0.43702167,-0.27061832,0.01136539,-0.07078247
Cdkn2a,-0.110589765,-0.49780974,0.061632946,-0.13902786,-0.09457678,0.17239664,0.010847829,-0.30981836,-0.3244389,-0.091377765,0.053710435,0.8495402,0.29485995,0.44582716,-0.18098179,-0.16237752,0.018072506,0.21041985,0.017215775,0.18657197
Jun,0.13117395,0.1210096,0.015186933,-0.21027891,0.5155894,0.29068512,-0.16184868,-0.22010121,-0.14730923,0.071077175,-0.10803351,-0.34967548,-0.038553875,0.099470586,-0.12956147,-0.012860001,-0.0030731908,0.28311893,0.26918703,-0.20125169
L1td1,-0.3002211,-1.0683167,-0.013553039,0.059213914,0.43133286,0.23629703,0.100187965,-0.045213636,-0.31858754,-0.06630975,0.11781403,0.16362832,0.030334804,0.50285727,-0.38753486,0.12205102,-0.20492831,0.31939173,0.037753597,-0.21943991
Plpp3,0.3624874,0.15696421,0.0095612155,-0.057664953,0.4138906,0.24028617,-0.0083789,0.017937314,-0.1599195,0.06140895,-0.10803671,-0.05412478,-0.13811183,0.1603066,-0.29237202,-0.02919926,0.106864505,-0.058688924,-0.0436228,0.120338984
Gpx7,0.4712368,-0.14548533,-0.020741705,0.013977775,0.24713024,0.22732702,0.058196858,-0.06010422,-0.21202065,-0.016066622,0.004314458,-0.60028666,-0.046930578,0.08028784,-0.21209507,0.14267945,-0.14663237,-0.12757166,0.03796885,0.033094082
Txndc12,0.27403373,-0.11416278,0.0051905564,0.003593202,0.2343121,0.21768023,-0.007606419,-0.074068755,-0.12839165,-0.07791336,-0.035855055,-0.13691053,-0.18635464,0.33276495,-0.14084738,0.07227792,-0.14850964,0.09686155,-0.007431114,-0.08695152
Bend5,0.17668891,0.07631147,-0.008020699,0.25599718,0.07316546,0.17880131,-0.011639727,-0.048081778,-0.17345728,-0.15594141,-0.025926372,-0.028841147,-0.3242573,0.45372307,-0.17259666,0.24125111,-0.5221575,-0.14253388,-0.027162801,-0.028687136
Tal1,-0.5282172,0.1199436,0.1668496,-0.52497745,0.21069081,0.13685423,-0.092696145,0.3006959,-0.083866216,0.039055627,0.27664503,-1.0621738,0.14189762,0.077034205,0.7732969,-0.40608504,0.031440843,-0.1900003,-0.035755932,-0.23544051
Prdx1,-0.010476168,-0.14236213,-0.069603026,0.046268445,0.22000647,0.23782994,-0.0746996,-0.11357191,-0.22980624,-0.06429477,0.0019152955,-0.2822393,-0.123257905,0.30091196,0.09452498,0.10929914,0.099984005,0.08180853,-0.016906418,-0.10288296
Atp6v0b,-0.16535364,-0.08534649,-0.01078703,-0.045747135,0.23597679,0.22173946,-0.012015425,-0.080758154,-0.18696886,-0.06659645,0.03545076,0.007463175,-0.1235017,0.30856106,0.07226977,0.12723088,-0.0094180945,0.034574687,-0.033519857,-0.0896273
Elovl1,-0.12164236,-0.024828397,-0.08607649,-0.12883691,0.18586394,0.16574909,-0.07515666,-0.05208467,-0.13853662,-0.07669698,-0.0634641,0.22021577,0.003889971,0.05941612,0.16287361,0.104381464,-0.057368305,-0.028359609,0.026618788,-0.06488106
2610528J11Rik,-0.21051656,-0.5006725,0.021078534,-0.0772097,0.075106084,0.22664113,0.0057564527,-0.08672501,-0.37969276,-0.23246063,0.00724488,0.5286012,-0.16327646,0.7125561,-0.13126794,-0.009319597,-0.4426926,0.054631762,-0.05054301,0.034840245
Tmem125,-0.041143924,-0.43288597,-0.056861907,-0.029689427,-0.04617202,0.11624169,-0.0035041024,0.024617437,-0.13153337,-0.31107134,0.19482103,0.6900761,-0.016621768,0.74183786,-0.29945433,0.054850616,-0.13518465,0.273955,-0.070217334,-0.113202244
Slc2a1,0.01763392,-0.006292021,-0.17368102,-0.09377294,0.20027699,0.31696317,-0.06743971,-0.07449378,-0.18441147,-0.08884461,0.04133486,-0.15277943,0.05104222,0.36821783,-0.1657498,0.18637261,0.11642941,-0.09905786,-0.013447269,-0.053135075
Cited4,-0.98345476,0.30240554,0.03796247,-0.2767846,0.044034146,0.14726631,-0.12504786,-0.13776927,0.0009737791,-0.08697734,0.08669907,-0.3070955,0.12801464,0.43907046,0.32575026,-0.030296043,-0.0759262,-0.5892169,0.049741797,-0.12051795
Mycl,0.12523283,-0.37144858,0.07869239,0.37130365,0.063147716,0.38579735,0.0373605,-0.17309356,-0.09827599,-0.24934752,0.055689428,-0.6567018,-0.15893152,0.26736012,-0.33396673,0.18415792,0.3381824,0.18545873,0.09589951,0.028451588
Pou3f1,-0.0015242764,-0.5553196,0.13883713,0.081369095,0.697938,0.33825365,-0.010640411,0.07888651,-0.2728115,-0.19839495,0.14638944,-0.22258978,0.25636655,0.8484873,-0.5197479,0.065796785,0.40108883,0.27115765,-0.059399102,0.033913437
Oscp1,0.22281007,-0.078279816,0.02904791,-0.06818922,0.10989436,0.12290386,0.029720256,0.05769707,-0.16225633,0.14485063,0.1644934,-0.49488762,-0.23271793,0.21360564,-0.25715077,0.16215214,0.22392572,0.009168152,0.07179603,0.14626028
Eva1b,0.4662558,-0.12560421,0.05801747,-0.11540248,0.2981111,0.18346505,0.0633189,-0.100374736,-0.16044189,-0.0509989,-0.05488095,0.08930145,-0.037167527,0.2740328,0.06184166,0.07563566,-0.1655418,-0.08457853,-0.19910099,-0.15494315
Gjb3,0.20414482,-0.24550477,-0.017176582,0.28394854,0.0055171633,0.13489412,-0.07921737,0.07247452,-0.27299726,0.015988465,-0.0010477256,0.16483909,0.8296702,0.15558699,-0.557446,-0.10057289,0.36363992,0.23918939,0.047511153,-0.28651062
Gjb5,0.2132369,-0.24440208,0.07902085,0.105690956,0.16768548,0.14053889,-0.101710916,0.047210768,-0.3727098,0.03176205,-0.25328034,0.21072517,0.9223962,-0.15951571,-0.46554866,0.10927685,0.41652623,0.19726153,-0.07708254,0.002733263
Tmem54,-0.072340555,-0.6527774,-0.09276111,0.034488637,0.013617788,-0.06458633,-0.12645227,0.005890745,-0.3839206,-0.16187651,-0.022690132,0.16664818,0.3492818,0.7844952,-0.68198055,0.083249144,0.09131852,0.36520687,-0.089574166,-0.4362137
Zbtb8a,0.321965,-0.52993613,-0.1020005,-0.032036297,0.19251898,0.27757162,-0.15882663,-0.07929902,-0.5627314,-0.14534189,0.050369598,-0.653943,-0.1288652,0.44985762,-0.20275211,0.032311443,0.013004956,0.20696855,-0.023308892,-0.044326905
Tinagl1,0.22048506,-0.061470617,-0.0806209,-0.16547547,0.13436355,0.18624336,-0.04855305,0.073917955,-0.08673513,-0.1447694,-0.18470615,0.96803343,0.46361762,0.25253737,-0.22088681,0.36580724,-0.0045714853,0.17838213,-0.09455265,0.03913789
Fabp3,-0.33362737,-0.42003357,0.07762599,0.18412067,0.29685923,0.1661335,0.011813018,-0.19496693,-0.13050237,-0.010421649,-0.1613711,0.2202556,0.5567956,0.43192503,-0.13393663,0.2130069,0.19991903,0.22120433,0.014534033,0.09416009
Sfn,-0.003083703,-0.7482977,-0.02047579,-0.115659356,-0.16652866,0.030916067,-0.1404089,0.031626333,-0.36434862,-0.16976616,-0.06999218,0.0904948,0.34663025,0.40995225,-0.5321878,0.055937853,0.3649725,0.5559606,-0.022754908,-0.29993185
Sh3bgrl3,-0.009616473,-0.04817314,-0.05887559,-0.025019683,0.2357833,0.23507607,0.039300058,-0.099327624,-0.18604334,-0.08623139,-0.016660728,-0.28575715,0.022876818,0.24855101,0.13158181,0.088773265,0.04509149,0.015468488,-0.024794718,-0.13569564
Grrp1,0.446102,-0.3334872,0.18250091,0.10891796,0.25185284,0.14660743,0.028028032,0.079046234,0.24041663,0.16514164,-0.018988328,-1.1745614,-0.18751048,0.20623054,0.014115315,-0.05574827,-0.29599732,0.0115174195,-0.046782658,-0.25842327
Id3,0.25821128,-0.108187295,-0.024472272,0.21157971,0.23629366,0.23828122,-0.06714472,-0.10732315,-0.22858754,-0.06636195,0.032996695,-0.30432656,-0.16055803,0.34207565,-0.06799822,0.034030985,-0.31355983,-0.055351447,0.0063534193,-0.20381655
Tcea3,-0.13456285,-0.6092294,0.17436929,0.2849529,-0.06500591,0.008321238,0.06480457,-0.35896268,-0.27435586,-0.13711044,-0.08785946,-0.18466438,-0.33478045,-0.031244883,-0.45269713,0.29073557,0.20793402,0.1608216,0.13457334,0.028199406
Pqlc2,-0.15102525,-0.26878625,0.016624147,-0.053556778,0.16774218,0.201958,-0.097386144,-0.036487557,-0.20225716,-0.022329891,0.007838298,0.3128477,-0.2176624,0.30247444,-0.13427547,0.1329153,-0.29731232,-0.017010842,-0.025392158,-0.029056014
Mfap2,0.43700814,0.1735765,0.13025017,-0.03429928,0.27280965,0.13172935,-0.0075506796,-0.0884656,-0.3664742,-0.040752124,-0.09904436,-1.1385083,-0.16446356,0.3119618,-0.34041557,0.086323276,-0.16615534,-0.2776763,-0.06257127,-0.07749265
Gm13075,-0.33631966,-0.35205594,-0.10804781,0.044350028,0.6696399,0.4272592,-0.048963256,0.00063734775,-0.19891629,-0.034783747,-0.020461101,-0.35295498,-0.12943567,0.1376705,-0.19159226,-0.20932081,0.15403867,0.119262464,-0.39487597,-0.16185482
Efhd2,0.014981821,0.06287811,-0.03519847,-0.108007364,0.2206047,0.17735097,-0.08370568,-0.19842006,-0.21520826,-0.011725499,0.07542189,-0.02568227,0.30139828,0.15270558,0.1418064,0.25426513,-0.022393854,0.14523113,-0.09975517,-0.07683554
Tmem51,0.029668124,-0.2472077,0.0430881,0.051671468,0.20242414,0.03691252,-0.09194749,-0.057145372,-0.19004178,-0.03880764,0.010097736,0.22370222,-0.110966355,0.406764,-0.1692257,0.17091466,-0.15019484,0.27333835,-0.10960285,0.07160773
Pdpn,0.02357637,-0.2841361,-0.16807531,-0.09865092,0.08425902,0.2628739,-0.1267241,-0.24310662,-0.26766676,-0.049377546,-0.21697982,0.04287695,-0.22564244,0.42352134,-0.4700751,0.26143208,-0.48081255,-0.0029262602,0.014504128,-0.11709549
Zfp979,-0.12644506,-0.30235058,-0.05188576,-0.073758684,0.40619162,0.24837667,-0.23167701,-0.090291925,-0.20150845,-0.099293165,0.049528543,-0.5909609,0.031980895,0.29886717,0.18073131,0.07018793,0.30530572,0.09861237,-0.055966023,-0.18100597
Agtrap,-0.07830053,-0.58003545,-0.05580802,0.03629475,0.29994717,-0.013774997,0.069901675,-0.038291547,-0.17202333,-0.04851769,0.023718499,-0.0886333,-0.15543921,-0.007993528,-0.105632186,0.22643237,-0.015153098,0.35021234,0.024331324,0.039952252
Errfi1,0.20720752,-0.08571141,-0.019505935,-0.02542542,0.13395083,0.19139236,-0.19111569,-0.14991172,-0.2323565,-0.079121254,0.05980938,0.087145306,0.047662683,0.38445956,-0.07760271,0.026427357,0.39642313,0.078443274,-0.099879466,-0.100197405
Espn,-0.123290494,-0.15016378,0.08093838,-0.113786526,-0.13313517,-0.06395204,-0.15239796,-0.15047166,-0.3120595,-0.18796144,0.02714476,0.16024755,-0.35805124,0.76779515,-0.21276093,-0.046108495,-0.41369408,-0.11739906,0.036533542,-0.254762
Hes3,-0.11102333,0.09728249,-0.018345455,0.34278953,0.052731644,0.587026,0.04153196,-0.21759914,0.036294855,0.05781922,0.14265364,-0.80396,0.123459816,0.47494888,-0.85318184,0.2442834,0.38054365,-1.4196653,-0.10615016,0.032391876
Smim1,-0.6770579,0.35227123,-0.091624446,-0.22530788,0.11856235,0.24008411,0.06628053,-0.105183885,-0.3044033,-0.15518697,0.010651107,0.17422761,0.36067972,0.2270751,0.29145053,0.23306923,-0.036344573,-0.1577891,-0.045200482,-0.12890726
Steap1,0.23062982,0.0035409834,-0.17975397,-0.19750631,0.20505331,0.24790037,-0.10950424,0.0569434,-0.26068705,-0.08226546,-0.055025864,0.25874817,-0.14407536,0.04943628,-0.1749606,0.39332405,-0.06141892,-0.09077455,-0.13513242,0.048528485
Sri,-0.02477318,0.056031816,-0.035972018,-0.0885885,0.12740445,0.16449974,-0.019926488,-0.10309334,-0.21329086,-0.05005198,0.018410103,-0.0447373,-0.10921823,0.20595296,0.14393534,0.15989643,-0.012819286,-0.011605023,-0.024705894,-0.0283024
Crot,0.2149206,-0.27812755,-0.050873186,0.097762704,0.08293887,0.24726516,-0.17516032,-0.11192253,-0.12036906,0.07862363,0.010036147,-0.13786781,-0.19950785,0.09740989,-0.034808356,0.2029233,0.063878894,-0.03406985,0.16079174,-0.13359205
Smarcd3,0.33931383,0.35477102,-0.11750601,0.18238735,0.31906176,-0.019424113,-0.073001094,-0.32026443,-0.26126394,0.11926388,0.28439283,-0.2590462,0.27872065,-0.32624012,-0.024290672,0.17601234,-0.69503504,-0.30855277,0.06131136,0.30738115
Slc35f6,-0.038835187,-0.117455885,-0.06041734,0.019610219,0.24213864,0.12913285,-0.17734188,-0.033244494,-0.1911152,-0.027512463,0.027470596,0.21594864,-0.18177807,0.28369123,-0.083881095,0.17931058,-0.16627997,-0.067059115,0.015508381,0.0052856165
Emilin1,0.33129215,0.10687576,0.0773323,-0.06626275,0.5769283,0.17508742,-0.07223574,0.055724032,-0.16925365,-0.13979785,-0.04482703,0.0500387,-0.105956145,0.3179805,0.34376767,-0.016246991,-0.26248157,-0.15273768,-0.13030002,-0.15854494
Cgref1,-0.09905772,-0.36599156,0.03637228,-0.06697692,0.18088038,0.08473291,-0.05223169,-0.06562679,-0.18139657,-0.031620517,0.083698355,0.34424612,-0.13503331,0.5414029,-0.18681492,0.22701421,-0.370891,-0.087243214,-0.089479044,0.021018555
Gm1673,0.518483,0.039248575,0.099272266,0.09636402,0.18178676,0.16177745,0.15376842,-0.15076824,-0.15754147,-0.03817499,0.0077097123,-0.024594449,0.15255968,0.26603377,-0.30104518,0.05698816,0.77077806,-0.055712655,-0.05035164,0.1510746
Lrpap1,-0.061396707,0.0007592904,-0.15250981,-0.01592093,0.13014874,0.28320765,-0.029443951,-0.13954306,-0.1881704,-0.018510293,-0.009021267,-0.052187514,-0.10878792,0.22056232,-0.1829383,0.16651434,-0.3745401,0.06988943,0.0124512445,-0.11831228
Msx1,0.080854714,0.16193469,-0.084962696,0.40020922,-0.11745031,0.34021673,-0.051658317,0.073971845,-0.095691115,-0.14637248,-0.0032413767,-0.07281689,-0.17937423,-0.29552627,-0.22188812,0.2202448,-0.52314985,-0.28411126,-0.03216683,-0.37944704
0610040J01Rik,0.095058106,-0.22548993,0.05621903,0.03815831,-0.035309426,0.1345008,-0.07995987,0.031559575,-0.20099628,-0.018440446,0.17690784,0.46407124,-0.24807079,0.5251787,-0.22179921,-0.08691723,-0.07276659,-0.1678261,-0.08819077,-0.061400592
Ugdh,0.2557266,-0.054303154,-0.0539593,0.11035977,0.12052618,0.41299605,-0.1512408,-0.03275105,-0.31673348,-0.012399613,0.013970908,-0.26388732,-0.11191846,0.15442316,-0.0071214265,0.2690109,-0.32028088,-0.07239891,-0.039699294,-0.0056293863
Smim14,0.18464227,0.098877884,-0.048564713,-0.08167145,0.06732239,0.37561178,0.018179392,0.005576482,-0.26822376,-0.024669327,0.024672382,-0.2868143,-0.2874375,0.30966878,-0.24213755,0.24854054,-0.47744796,-0.12304481,0.064534314,0.106053494
Rbm47,-0.31425261,-0.47409198,0.06398678,-0.008541875,-0.06259574,0.028756073,-0.017110357,-0.06548466,-0.20675434,0.045763336,0.10002182,0.49365672,-0.3690745,0.3428166,-0.3122511,0.031255692,-0.17726989,0.5793512,-0.23199098,-0.085805684
Uchl1,0.19630644,-0.0713879,0.13266143,-0.05456256,0.16102067,0.27448675,0.010545683,-0.105906084,-0.5025468,-0.2709198,0.07081833,-0.9066742,-0.24040057,0.70026404,-0.5554034,0.22729039,0.06722276,-0.28544518,0.1493496,-0.095652
Pdgfra,0.10599853,0.31755272,0.10641091,0.301742,0.45717,-0.05687166,-0.048685975,-0.17995676,-0.23814388,-0.046319738,-0.18651825,-0.08693011,-0.3468204,-0.5790123,-0.11911241,0.16891623,-0.6797636,-0.08154523,-0.08131675,0.13894273
C530008M17Rik,0.3500951,0.14269184,-0.110108286,-0.15837094,0.17562391,0.27135226,0.03911026,-0.22923261,-0.2546697,-0.25140664,0.25766185,-0.8210561,0.051566575,0.0036151023,-0.18644321,0.04401459,-0.30933332,-0.088239424,0.053475566,0.03639798
Grsf1,-0.107864514,-0.2642582,-0.07013502,0.029005064,0.16920339,0.27339107,-0.081215136,-0.17698562,-0.14782037,-0.09561124,0.0035619044,-0.31275314,-0.1087439,-0.010491588,-0.12339465,0.14598571,0.21533775,-0.31444243,0.0044846362,-0.13170134
Afp,-0.23212126,0.074619465,-0.08878453,-0.33867756,-0.0025810692,0.3199648,0.008025917,0.11641899,-0.3810092,-0.24432066,0.0854934,0.49380618,-0.3211124,0.3496878,-0.00843358,-0.019979978,-0.31194976,-0.5908384,0.052420385,0.46412182
Naaa,0.24297492,-0.2204175,0.20558299,0.0669233,0.19814505,0.40710643,-0.071238205,0.058551203,-0.43028212,-0.1726111,-0.01519406,0.27933756,-0.5545579,-0.07533231,-0.021460347,0.0095515605,0.07926188,-0.48706335,0.052057438,-0.14398493
Anxa3,0.5100161,-0.27694598,0.08627148,-0.2525704,0.15949486,0.017787622,-0.12402671,-0.06142013,-0.15540096,-0.12412745,-0.17627805,-0.016801065,0.4518636,-0.09905802,-0.01650135,0.19919407,0.4874734,-0.14818051,0.05111253,-0.14146806
Fgf5,-0.22917207,-0.8934549,0.04186652,-0.16938871,0.07192122,0.3129865,-0.012747574,-0.031370882,-0.2680948,-0.14075276,0.039255165,-0.8422856,-0.4311298,0.6202873,-0.31817317,0.09630847,-0.30356494,0.78368336,-0.043793526,0.063925296
Plac8,0.066572025,-0.15238924,-0.14921664,-0.13067617,0.20737918,0.1155205,-0.14474134,-0.10984987,-0.42839792,-0.1420364,-0.032246266,-0.17560567,0.09521963,0.04368261,0.13139814,0.28714663,-0.44908074,0.24160004,-0.13012722,-0.166768
Fam69a,-0.11642432,0.1110873,-0.06226979,-0.1066213,0.22676562,0.2852085,-0.21063574,-0.1162363,-0.11603792,-0.14315888,-0.0016105454,0.04700557,-0.25216916,0.238469,0.015001849,0.14028473,-0.09683259,0.034070957,0.043147683,0.13039432
Golga3,-0.22051546,-0.12256253,-0.027696151,0.009302994,0.5093112,0.23262027,-0.009210238,-0.15661803,-0.20711093,-0.14832723,0.0399499,-0.27199337,-0.09971489,0.17259507,-0.18314232,0.005305953,-0.0025375397,0.07040852,-0.166053,-0.17429522
Rplp0,-0.06537572,-0.06791673,-0.057519604,0.046508983,0.24274114,0.21572365,-0.014163219,-0.09781208,-0.2165025,-0.06858942,0.014988404,-0.2674472,-0.106387414,0.2725373,0.06577058,0.11456908,0.09908787,0.04351691,-0.023099672,-0.095801085
Fbxo21,0.10202674,-0.28195634,-0.023367606,0.15419212,0.26022705,0.20012802,-0.12435734,-0.21658687,-0.29570106,-0.056613803,0.030116009,0.084046684,0.1418865,0.357005,-0.029793069,0.10192004,0.19495928,-0.0055996208,-0.041176613,0.004233631
Tbx3,0.068002574,0.22754316,0.018946338,0.33292842,0.10590474,0.291336,-0.03603111,-0.06414177,-0.2416682,-0.1942743,0.010192705,0.34387487,0.08760763,-0.528866,0.04608372,-0.18631992,-0.7997717,0.25985008,0.13889022,-0.40509003
Tpcn1,-0.085259475,0.1375164,0.031035025,-0.17706305,0.26428124,0.28756842,0.011482519,-0.069985345,-0.15489551,-0.18893191,0.00041152784,0.30859524,-0.054746117,0.08489278,0.029122729,0.17213796,-0.3215813,-0.19511878,-0.15612485,-0.08479663
Aldh2,0.07512377,-0.08649473,-0.059535608,0.12835453,0.04585761,0.30022228,-0.06171283,-0.10223355,-0.22204106,0.016497497,-0.058764484,-0.15817256,-0.18689981,0.08455961,-0.06879645,0.014481677,-0.0826263,-0.045755703,0.17452773,-0.03292535
Ift81,0.2976159,-0.056035403,0.0533524,0.011892129,0.19454862,0.19521216,0.035296127,-0.102239266,-0.30723038,0.108380236,0.107963376,-0.52835864,-0.095622204,0.21253996,-0.26066965,0.14612068,0.16307384,0.05184204,0.06537202,0.048038106
P2rx4,-0.06666832,-0.23786816,0.06339541,-0.15408333,0.116926104,0.16034216,-0.0711138,-0.09381482,-0.3229421,-0.051859,0.073697045,0.3682067,-0.16718207,0.32913452,-0.05878881,0.10274821,-0.25329825,0.023759373,-0.041376445,-0.016436704
Gbas,0.12903032,0.10918478,-0.03355451,-0.11726573,0.03613517,0.2463301,-0.10132574,-0.11174419,-0.2778317,-0.057793196,0.0076284865,-0.15644577,-0.17234032,0.24564956,0.12934525,0.30592883,-0.2672221,-0.15206668,0.06541727,0.05878894
Psph,-0.16204306,-0.078765154,-0.090945,0.028693167,0.23013726,0.2100595,-0.03446975,-0.08135824,-0.23832971,-0.063444175,0.067805566,0.011826819,-0.11597809,0.2756583,0.079491146,0.2367899,-0.15323646,-0.045681592,-0.04941471,0.007566018
Cldn4,0.10651433,-0.43611905,-0.031417377,-0.26783273,-0.1684697,0.018380126,-0.19071485,-0.27790502,-0.4226009,-0.21896635,0.007756307,0.32354912,0.4594767,0.82188994,-0.7787984,-0.16525336,0.49177122,0.31251192,0.010926645,-0.21889868
Cldn3,0.008279508,-0.6051216,0.046954427,-0.018224195,-0.032394446,0.06507415,-0.107206635,0.01824354,-0.28750995,-0.19643943,-0.04104427,0.49689558,0.44056022,0.67848396,-0.60584575,0.0043847007,0.46307212,0.12461735,0.10593484,-0.13091692
Hspb1,-0.0023749718,-0.5932484,-0.01706095,-0.050567474,0.12623358,0.13444299,0.07025716,-0.16184425,-0.17204842,-0.11153146,0.06662402,0.3262265,0.43487948,0.3023552,-0.21172005,0.310349,-0.14580679,0.23510751,0.19443129,-0.008649214
Ift22,0.1431676,-0.07426601,0.018825894,-0.001869362,0.19770913,0.16557936,0.07425861,-0.053690407,-0.20552275,0.07242654,0.040705863,-0.42339063,-0.12061691,0.2299057,-0.07472039,0.11353943,0.1311187,-0.05400859,0.019167522,0.00930746
Pcolce,0.6511472,-0.088879146,0.09996396,-0.04829203,0.45507514,0.19116637,-0.036103226,-0.15436354,-0.40182066,0.059713833,-0.26813155,-0.8965678,0.4234292,0.033169802,-0.15950035,0.18412223,-0.35586932,0.014474569,-0.22897898,0.021976834
Pdgfa,0.3380553,-0.038434707,-0.005097374,0.17916654,0.015321999,0.37167153,0.13501345,-0.05456262,-0.009383215,0.097207144,0.026218476,-0.24560192,0.38579896,0.18097472,-0.68112767,0.026074829,0.23577634,-0.010936582,-0.04959711,-0.37926865
Fscn1,0.19217102,-0.10698047,-0.062438704,0.029965814,0.19379254,0.23775414,-0.051055633,-0.13585119,-0.1736421,-0.09590739,-0.005177068,-0.57732874,-0.015688607,0.20932913,0.009298628,0.089082696,0.10314706,0.0140442,-0.046231475,-0.07043891
Nptx2,0.063787304,-0.27525577,0.061000343,0.041959494,0.20254216,0.42513752,0.07032941,-0.06847056,0.0014057759,-0.07798537,-0.02285524,-0.9923769,0.14786671,0.4867503,-0.603594,-0.043910798,-0.105848886,0.28958347,0.21191117,0.4290912
Arpc1b,0.10288229,-0.29730973,0.11511383,-0.006411309,0.23925348,0.22471069,-0.010183323,-0.029955322,-0.19604473,-0.049989227,-0.022942888,0.29816964,0.15080857,0.2740869,0.28174952,0.017833343,0.078019604,-0.034832615,-0.018026073,-0.12920156
Rasl11a,0.35623372,-0.21674071,-0.083874054,0.18683726,0.3222503,0.24075484,-0.20391321,-0.113656245,-0.292346,-0.048346087,0.13295719,-0.7573168,0.042903546,0.22332594,-0.18526705,-0.0076386505,0.2521829,0.059375808,-0.060708664,0.045898996
Cdx2,0.25477514,-0.63429296,-0.07000784,0.12833488,-0.14206737,0.45427042,0.053449403,-0.11315427,-0.15999235,0.060212534,0.12555568,0.4458693,0.03700348,-0.4988634,-0.29358625,0.21477441,0.4395361,-0.58336,-0.115603544,-0.27879277
Hmgb1,-0.024128182,-0.060141075,-0.06361782,0.044465058,0.23787266,0.22862132,-0.036448877,-0.10836405,-0.22673945,-0.067733005,0.0027720295,-0.3258007,-0.12568346,0.26755962,0.06356351,0.10779298,0.08667898,0.036138598,-0.025239263,-0.09167066
Gng11,0.60900337,0.184358,0.25628898,-0.29016334,0.11846241,0.06389536,0.02889869,-0.035342555,-0.02549723,-0.16697384,-0.015004075,-0.3656007,-0.23785709,0.3841483,0.36230415,-0.014486553,-0.6175367,-0.12545472,-0.08963676,-0.072767705
Sgce,0.44804174,0.12309592,0.032647856,0.012425638,0.0832789,0.42360133,-0.0067558726,-0.0027013938,-0.10622572,0.056967147,-0.0018675528,0.09019364,-0.10377936,0.08715028,-0.15085816,0.1593124,-0.306571,-0.1834926,0.027840788,0.05112599
Peg10,0.14469308,0.08309211,0.024107188,-0.01675698,0.2920077,0.31101972,0.0522159,-0.12384472,-0.20421171,-0.03781645,0.12602058,0.61687773,0.19944581,-0.2209039,-0.041995056,-0.014311126,-0.16952513,-0.018935746,-0.11224381,-0.120653324
Pon2,-0.07539274,0.062191114,0.055538848,-0.31391612,0.08593388,0.26195598,-0.033100117,-0.048967782,-0.097084805,0.03369869,-0.0154336,0.26859984,-0.11606949,0.19692114,0.20462859,0.187899,0.19436194,0.028043225,-0.074120775,-0.10151873
Asb4,0.47979715,0.18275955,0.062239308,-0.20156507,0.10146708,0.28589034,0.010366747,-0.017769977,0.01904196,0.106940515,0.13965435,-0.70259863,-0.07756952,-0.084581174,0.08787565,0.23046353,-0.64433426,0.27362105,-0.0113945855,0.06622917
Asns,-0.13225599,-0.056193605,-0.095314026,-0.08468358,0.16578507,0.26883623,-0.097830124,-0.10298722,-0.20318235,-0.043525614,0.01902446,-0.3181178,0.043667004,0.15607114,0.15713698,0.07574192,0.30824113,0.115025654,0.002406327,0.05117246
Wnt2,-0.03843643,0.51574993,0.021489246,0.123763435,0.4020066,-0.31647334,-0.0125801,0.07075318,-0.31034097,0.21782817,0.17578763,-0.9525568,0.18829553,-0.75462806,0.24647997,0.44373047,-0.72825724,-0.04435513,0.07145007,0.06385806
Tspan12,0.08736876,0.36918706,-0.07577809,-0.27373505,0.102970764,0.2729859,-0.20680547,-0.35197842,-0.10821943,-0.05590453,0.039270096,-0.24605577,-0.20484324,0.14206487,0.10903358,-0.058214713,-0.42463544,-0.39484486,-0.113107726,-0.10886889
Tspan33,-0.8036031,-0.15014462,0.10771362,-0.21407843,0.15118282,0.25934342,0.061920762,-0.26662382,-0.07794829,0.052152704,0.246451,-0.06984863,0.12713891,0.5459086,-0.013316193,-0.036301363,0.34065786,0.08367711,0.012365979,-0.10529023
Mest,0.5517967,0.20891482,-0.03802111,-0.05783059,0.2261415,0.32891858,-0.054249328,0.03683994,-0.1301384,-0.12444334,0.100030705,-0.4625226,0.16613302,0.2910147,-0.01298555,0.06227164,0.11281357,0.00084142754,-0.07002494,-0.08560019
Podxl,-0.16775239,0.18974371,-0.15641649,-0.19667225,0.34522587,0.32931882,0.068477415,-0.17517957,-0.15770708,-0.18057925,0.1587549,0.24474187,0.11882583,0.30406544,-0.20232616,0.056525115,-0.4000181,-0.023258224,-0.09403477,-0.15543947
Akr1b8,-0.07290302,-0.06983029,-0.17438872,0.002091478,0.46031132,0.2194813,-0.061251618,-0.067059375,-0.050522543,0.05589925,-0.006452063,-0.15830727,0.37130263,0.25857368,0.030649941,0.46433768,-0.40145984,-0.3106346,-0.016911883,0.0029893685
Cald1,0.4864378,0.07213023,-0.02803616,-0.1790582,0.33921796,0.23387502,0.06533406,-0.11588755,-0.23592341,-0.072887205,-0.1259573,-0.43486467,0.18078125,0.088005766,-0.093317196,0.008477573,0.24743584,0.10058574,0.00062160747,0.027193585
Slc13a4,-0.30360103,-0.10389594,-0.11338213,-0.06347182,0.15002002,0.29563507,0.013819742,-0.054637305,-0.15511958,-0.13212001,0.112663336,0.31943554,-0.25443858,0.2778693,-0.14777316,-0.0058951895,-0.7030674,-0.39809924,-0.054406237,0.20413417
Ptn,0.34087917,0.36589345,-0.04061619,0.16822429,0.34488767,0.14503804,-0.10172971,-0.08243155,-0.1982608,0.015002092,-0.133094,-0.908137,-0.10292667,0.5699488,-0.57520676,0.13004093,0.19439559,-0.6331804,-0.11452262,0.060975827
Mkrn1,-0.10990338,-0.35973996,-0.009938742,0.115463935,0.23377496,0.239512,0.007350648,-0.08878577,-0.25078195,-0.10435407,0.057416867,-0.2138088,-0.07880611,0.3907055,-0.12383885,0.2025356,0.24016815,0.10916611,-0.060096785,-0.10706878
Epha1,-0.12724026,-0.9874345,-0.084804356,0.028650928,0.095947765,0.16340363,-0.028738184,-0.0012553235,-0.13666297,-0.108858384,-0.08077083,-0.26114538,-0.45613158,0.11729157,-0.49160075,0.28377163,0.16170587,0.0676468,-0.061520047,-0.14513873
Cntnap2,-0.3371399,0.29200837,-0.08749302,-0.028814945,-0.015163444,0.40431428,-0.11861014,-0.2418582,-0.3928187,0.07721166,0.012091819,-0.72115123,-0.11426944,0.45387062,-0.6310564,-0.0075370786,0.22529945,-0.04863607,-0.056990348,0.20518394
Tmem176b,0.25573218,-0.10497112,-0.03657111,-0.13268164,0.19591348,0.19528754,0.053382333,-0.15080914,-0.097089924,0.087915115,-0.012097959,-0.35584897,-0.42419183,0.07344841,-0.07511847,0.087523095,-0.42099777,-0.47405493,0.21580473,-0.15223463
Tmem176a,0.20511737,-0.10737143,-0.029394073,-0.14236942,0.17988053,0.15070677,-0.003925636,-0.14407994,-0.11406675,0.0672893,0.02961915,-0.36573198,-0.37424228,0.025495527,-0.10898952,0.089651056,-0.49415243,-0.38916278,0.14107622,-0.18020381
Skap2,0.23906817,-0.18580195,-0.06566585,0.009920713,0.17734966,0.16209221,-0.10515634,-0.16161457,-0.22645295,-0.091113076,0.12261819,0.061750617,-0.22156467,0.12535596,-0.02805351,0.09845698,0.51117975,-0.37337983,-0.03623887,-0.059484515
Hoxa1,0.51718765,-0.14716586,-0.3532099,0.18538621,0.24281937,-0.044642143,-0.0935472,-0.42646682,-0.16291294,0.09971568,0.24336354,-0.22898874,0.06528755,-0.23479603,-0.43174723,0.058144763,0.43308792,-1.113977,-0.22162922,-0.014869926
Hotairm1,0.57641584,-0.024220102,-0.28240085,0.19067064,0.27738827,-0.015535814,0.08180188,-0.40360734,-0.19119279,0.057884075,0.1492727,-0.044222027,-0.0076988437,-0.21219389,-0.32735375,0.113263115,0.5008943,-1.0324972,-0.15093288,-0.16472766
Hoxaas3,0.19767918,-0.16624942,0.06585289,-0.031667426,-0.07936067,0.39205226,0.0016588611,-0.07414051,-0.5618163,-0.24725127,0.0689896,-0.40635166,-0.15351218,-0.44243798,-0.36172396,0.07337981,0.59096646,-1.5416932,-0.06827334,-0.3643527
Evx1os,0.077635504,-0.413592,0.26807827,0.3994821,-0.27400285,0.45594603,0.017017657,-0.010180682,0.03859522,-0.36795098,-0.02903583,-0.9357842,-0.34417516,-0.7118262,-0.31669232,0.23968723,-0.18996087,-0.11055255,-0.102844305,-0.39002463
Evx1,-0.06328998,-0.45248485,0.10859812,0.3896296,-0.24630289,0.54007083,-0.0099527035,-0.007398521,0.00060889614,-0.22870366,-0.03930159,-0.76404446,-0.31572893,-0.75218195,-0.4038326,0.21720235,-0.21021363,-0.022643572,-0.10174974,-0.37515932
Abcg2,-0.24816854,0.012014464,-0.016304288,-0.07298693,0.23811004,0.28676853,-0.18681635,-0.05390892,-0.31204638,-0.016508574,0.052769646,-0.19175778,-0.3529959,0.14743014,0.1707618,0.1322071,-0.06394378,-0.007533629,0.086966604,-0.058017526
Snca,-1.0821643,-0.06626918,0.02199173,-0.34280857,0.24150456,0.2050789,-0.21051686,-0.13733591,-0.23872907,-0.09204559,0.10041384,-0.9926561,0.22776434,0.543457,0.2500037,0.037286025,0.10568054,-0.3314396,0.0057883,-0.16585605
Gng12,0.099737205,-0.07783168,0.010324585,0.045063764,0.1261585,0.1896493,0.000852915,-0.026810447,-0.18377265,-0.18421634,-0.05355804,0.42307743,-0.06710978,0.13181445,0.11780086,0.11621722,-0.030733952,-0.006809686,-0.091045044,-0.07815653
Gadd45a,-0.3209334,0.19514966,-0.17451425,0.14629091,0.20636924,0.24024534,-0.22932677,0.081488274,-0.13704717,-0.0073057446,0.026597003,-0.3863485,-0.07292947,0.38497505,-0.27481192,0.114746556,0.3077304,-0.09683205,0.09064107,-0.064930476
St3gal5,-0.06376777,0.33898944,-0.15988135,-0.3054657,0.2204141,0.14971119,-0.19285668,-0.06510144,-0.23063724,-0.07952819,0.046297126,-0.33918506,0.2873576,0.017691847,0.058311976,0.21037036,0.27048936,0.010904428,-0.053353228,-0.11606297
Tmem150a,0.06607334,-0.09356745,0.035777796,0.056805093,0.1225229,0.21536072,-0.01836674,-0.11672601,-0.21317631,-0.148562,0.053694583,0.3383574,-0.0981824,0.2576965,0.09979941,0.13871038,-0.4325104,-0.1763604,-0.1114459,0.06264445
Rnf181,-0.05329912,-0.04771457,0.015280943,0.08856808,0.17452973,0.20937306,-0.070977785,-0.09684986,-0.2071909,-0.119327486,0.021963447,0.029337589,-0.1423101,0.323211,0.08592617,0.1617388,-0.10253522,0.011014917,-0.020243231,-0.06279455
Vamp8,-0.2027352,0.08038105,0.029072834,-0.11006017,0.12460143,0.14502387,0.00701808,-0.18807594,-0.36339217,-0.09446376,-0.007604378,0.05787446,-0.1402089,0.47654766,0.10939131,0.08401099,-0.13392207,0.13344051,-0.06808117,-0.08997559
Capg,0.05325485,-0.68923545,-0.030046172,-0.11602368,0.25150588,0.017316021,-0.12041828,-0.030792674,-0.32486525,0.012611707,-0.017271537,-0.29335952,0.118934624,0.39289975,-0.20676722,0.046666697,0.19708447,0.19709608,0.06626551,-0.1294809
Tmsb10,0.117682755,-0.032503814,-0.07041379,-0.00090197043,0.22006913,0.20972452,0.03255416,-0.1326186,-0.23549576,-0.09449761,-0.042691126,-0.43880042,-0.031799752,0.24784872,0.023827793,0.07314732,0.17226297,0.07245996,-0.021339417,-0.08207735
Dqx1,-0.18829535,-0.22948712,-0.12665594,0.013249669,0.4592897,0.35312182,0.077512756,-0.015599353,-0.26918888,-0.083080046,-0.16731565,-0.51470643,-0.32578084,0.16698961,-0.16213663,-0.15684372,-0.06998315,-0.23934239,-0.23992695,-0.1758572
H1fx,0.28030244,-0.06222433,-0.04787591,0.043293968,0.28487802,0.20824215,0.016693411,-0.1387877,-0.19723584,-0.0012327941,0.04911986,-0.5668077,-0.011667537,0.12754615,-0.2600596,0.0142675545,0.15444429,0.015195031,-0.032231677,-0.06387861
Gata2,-0.04208642,-0.05352055,0.091047235,0.25272602,0.21207178,0.056498844,-0.2755597,-0.21595535,0.07342824,0.045219224,0.0534958,0.1509015,0.8131193,0.12503687,0.59137404,-0.55547804,-0.44470686,0.044637885,0.11018241,-0.53092974
Trh,0.039147418,-0.945484,-0.041232824,-0.4003391,-0.02522278,0.40338066,0.07843363,-0.31516123,-0.08849075,-0.18039235,0.102043875,-0.732288,-0.30903426,0.73256326,-0.5600553,0.03028625,-0.27693057,0.15450908,-0.09553928,-0.18478227
Foxp1,0.34046033,0.090859495,-0.07710461,-0.0608295,0.4968404,0.016658837,-0.04862658,-0.22099473,-0.39177865,-0.12707701,0.06943442,-0.6870693,-0.31722382,0.16581126,-0.38985312,0.113249525,-0.23486817,-0.039386496,-0.039747663,-0.060177565
Vgll4,0.39310104,0.1646687,0.10261879,-0.12436801,0.1759611,0.18235238,-0.031073172,-0.004748529,-0.14270692,-0.08677905,0.06895418,-0.30294892,-0.0509492,0.0029628796,-0.09987996,0.022973835,0.052746236,-0.056587983,-0.08512572,-0.20126377
Cxcl12,0.18824592,-0.0441512,0.0043840087,0.09988139,0.16598055,0.2028851,-0.12811682,-0.32459667,-0.64946085,0.18289128,-0.40904602,-0.79097456,0.093261965,0.51551354,-0.8886221,0.28822216,-0.47926188,-0.14782377,-0.15176271,-0.40084544
Wnt5b,0.19376206,-0.22927617,0.17811777,0.1175195,-0.088140935,0.4092814,0.019622147,0.030513253,-0.24263994,-0.094370335,-0.08152907,-0.72969043,-0.28072092,-0.3488443,-0.5578223,0.18015905,0.060598932,-0.20077394,-0.013072713,-0.33112302
Atp6v1e1,-0.09135269,-0.12400767,-0.040515427,0.0558888,0.20157486,0.23347652,-0.02729182,-0.06536816,-0.19491349,-0.0628554,0.0273941,-0.098615155,-0.11801976,0.28936917,0.08989463,0.14740708,-0.021902384,-0.0030229467,0.012046914,-0.028631309
Nanog,-0.42056495,-0.78065777,0.061032318,0.2882225,0.060922895,0.4791567,-0.11884418,-0.19236559,-0.15190737,0.13572359,-0.15817495,-1.0899711,0.029839188,0.29680756,-0.77506393,0.15626252,-0.30515456,0.47503823,0.025827112,-0.19656505
Slc2a3,-0.05004534,-0.0024208515,-0.18838659,0.025638103,0.0324457,0.3575564,-0.042447962,-0.07329186,-0.035926107,-0.10854374,0.036920726,0.22245634,0.008071704,0.4087384,-0.3869766,0.09657326,-0.08851476,-0.15270823,-0.0136541305,-0.19227025
Gapdh,-0.043910265,-0.059377085,-0.054685365,0.054653917,0.22948584,0.22453974,-0.03278956,-0.100935295,-0.20764895,-0.059195504,0.007192338,-0.27656,-0.09816653,0.29421243,0.048513662,0.12207271,0.10283117,0.01817887,-0.0053749806,-0.07870908
Cd9,-0.16062422,-0.17837177,-0.028592752,-0.24042249,0.16466379,0.18608418,-0.18805654,-0.094852135,-0.1048636,-0.034832664,-0.101825714,0.0625439,0.037659075,0.545298,-0.08270722,0.0065985224,0.16436271,0.17207678,0.0173647,-0.1454195
Ccnd2,-0.036535945,0.2890066,-0.11369082,0.075653866,0.14103876,0.23627082,-0.012733545,-0.13078968,-0.017186368,-0.116536476,0.04764932,-1.0063457,-0.016413722,-0.04908692,-0.11766644,0.010193429,-0.06219328,-0.3247492,-0.022844888,-0.24393348
Tspan9,0.36202627,0.14554413,-0.051150367,-0.18103799,0.2824495,0.071346894,0.038842056,-0.07322121,-0.09101197,-0.15888853,-0.0594366,0.4825679,0.088819966,0.13012671,-0.0633125,0.16188654,-0.05491515,-0.041374292,-0.09453342,0.021654395
Tulp3,-0.032891527,-0.10581713,-0.06154819,0.06261892,0.3125313,0.23624235,-0.026038775,-0.067355044,-0.2449345,-0.079697676,0.024624186,-0.3119398,-0.10880117,0.16324566,-0.083726086,0.062706344,0.008788691,0.06744317,-0.056503948,-0.09548949
